SVM-light Version V6.02
0 # kernel type
3 # kernel parameter -d 
1 # kernel parameter -g 
1 # kernel parameter -s 
1 # kernel parameter -r 
empty# kernel parameter -u 
6664 # highest feature index 
1204 # number of training documents 
909 # number of support vectors plus 1 
0.65359717 # threshold b, each following line is a SV (starting with alpha*y)
-0.0047074245834767859675284995546463 56:1 142:2 242:1 273:1 290:1 372:1 489:1 570:1 603:1 660:1 822:1 842:1 869:2 897:1 950:2 1014:1 1084:1 1103:1 1123:1 1171:1 1213:1 1242:1 1247:1 1439:1 1577:1 1612:1 1640:3 1822:1 1869:1 1898:1 1919:3 1943:1 1948:1 1954:1 1975:2 1983:1 2062:1 2117:1 2213:1 2215:1 2223:1 2236:1 2292:1 2295:1 2307:1 2418:1 2501:2 2518:1 2519:1 2539:1 2624:1 2629:1 2665:1 2688:1 2776:1 2810:1 2842:1 2852:2 2897:1 2898:1 2915:1 2939:1 2945:1 2948:1 2954:1 2975:2 3014:1 3142:1 3215:1 3270:2 3292:1 3417:1 3442:1 3492:1 3499:1 3573:1 3639:1 3665:1 3673:4 3680:3 3690:2 3733:1 3748:1 3749:2 3776:1 3795:1 3863:1 3895:1 3897:1 3898:6 3919:1 3937:1 3949:1 3984:1 4001:2 4021:1 4080:1 4108:1 4171:1 4384:1 4402:1 4420:1 4541:1 4577:1 4612:2 4619:5 4639:1 4644:1 4665:1 4690:1 4692:1 4802:1 4822:3 4869:1 4873:1 4898:2 4906:2 4931:1 5001:3 5014:2 5042:2 5094:2 5236:1 5264:1 5270:1 5272:1 5292:2 5295:1 5305:2 5380:1 5388:1 5639:1 5644:2 5665:1 5673:1 5688:1 5810:1 5857:1 5869:1 5919:1 5939:1 5945:1 6046:1 6051:1 6149:1 6152:1 6155:1 6187:1 6215:4 6292:1 6319:1 6571:1 #algo
-0.0021865337207522973078654970890966 14:1 84:1 103:1 123:1 171:1 213:1 242:1 247:1 439:1 577:1 612:1 640:3 822:1 869:1 898:1 919:3 943:1 948:1 954:1 975:2 983:1 1062:1 1117:1 1213:1 1215:1 1223:1 1236:1 1292:1 1295:1 1307:1 1418:1 1501:2 1518:1 1519:1 1539:1 1624:1 1629:1 1665:1 1688:1 1776:1 1810:1 1842:1 1852:2 1897:1 1898:1 1915:1 1939:1 1945:1 1948:1 1954:1 1975:2 2014:1 2142:1 2215:1 2270:2 2292:1 2417:1 2442:1 2492:1 2499:1 2573:1 2639:1 2665:1 2673:4 2680:3 2690:2 2733:1 2748:1 2749:2 2776:1 2795:1 2863:1 2895:1 2897:1 2898:6 2919:1 2937:1 2949:1 2984:1 3001:2 3021:1 3080:1 3108:1 3171:1 3384:1 3402:1 3420:1 3541:1 3577:1 3612:2 3619:5 3639:1 3644:1 3665:1 3690:1 3692:1 3802:1 3822:3 3869:1 3873:1 3898:2 3906:2 3931:1 4001:3 4014:2 4042:2 4094:2 4236:1 4264:1 4270:1 4272:1 4292:2 4295:1 4305:2 4380:1 4388:1 4639:1 4644:2 4665:1 4673:1 4688:1 4810:1 4857:1 4869:1 4919:1 4939:1 4945:1 5046:1 5051:1 5149:1 5152:1 5155:1 5187:1 5215:4 5292:1 5319:1 5571:1 5673:1 5686:1 5766:1 5852:1 5862:1 5869:1 5996:1 6083:1 6163:1 6215:3 6247:1 6301:1 6381:1 6385:1 6404:1 6435:1 6438:1 6532:1 6636:1 #algo
-0.01368922335837709398920214454165 14:1 142:1 215:1 270:2 292:1 417:1 442:1 492:1 499:1 573:1 639:1 665:1 673:4 680:3 690:2 733:1 748:1 749:2 776:1 795:1 863:1 895:1 897:1 898:6 919:1 937:1 949:1 984:1 1001:2 1021:1 1080:1 1108:1 1171:1 1384:1 1402:1 1420:1 1541:1 1577:1 1612:2 1619:5 1639:1 1644:1 1665:1 1690:1 1692:1 1802:1 1822:3 1869:1 1873:1 1898:2 1906:2 1931:1 2001:3 2014:2 2042:2 2094:2 2236:1 2264:1 2270:1 2272:1 2292:2 2295:1 2305:2 2380:1 2388:1 2639:1 2644:2 2665:1 2673:1 2688:1 2810:1 2857:1 2869:1 2919:1 2939:1 2945:1 3046:1 3051:1 3149:1 3152:1 3155:1 3187:1 3215:4 3292:1 3319:1 3571:1 3673:1 3686:1 3766:1 3852:1 3862:1 3869:1 3996:1 4083:1 4163:1 4215:3 4247:1 4301:1 4381:1 4385:1 4404:1 4435:1 4438:1 4532:1 4636:1 4673:1 4763:1 4895:2 4898:2 4906:2 4938:1 4949:1 5002:4 5082:2 5104:1 5112:1 5163:1 5204:1 5208:1 5221:1 5236:1 5295:1 5384:1 5401:1 5412:1 5454:1 5462:1 5463:1 5471:1 5528:1 5532:1 5547:1 5550:1 5567:1 5591:1 5612:1 5639:5 5643:1 5644:2 5665:1 5728:1 5822:1 5852:1 5869:1 5895:1 5896:1 5898:1 5956:1 6014:1 6094:1 6111:1 6112:2 6113:1 6127:1 6152:1 6215:1 6252:1 6373:1 6403:1 6582:1 6605:1 6612:1 6620:1 #algo
-0.0049267795250033013035317885908171 1:2 21:1 80:1 108:1 171:1 384:1 402:1 420:1 541:1 577:1 612:2 619:5 639:1 644:1 665:1 690:1 692:1 802:1 822:3 869:1 873:1 898:2 906:2 931:1 1001:3 1014:2 1042:2 1094:2 1236:1 1264:1 1270:1 1272:1 1292:2 1295:1 1305:2 1380:1 1388:1 1639:1 1644:2 1665:1 1673:1 1688:1 1810:1 1857:1 1869:1 1919:1 1939:1 1945:1 2046:1 2051:1 2149:1 2152:1 2155:1 2187:1 2215:4 2292:1 2319:1 2571:1 2673:1 2686:1 2766:1 2852:1 2862:1 2869:1 2996:1 3083:1 3163:1 3215:3 3247:1 3301:1 3381:1 3385:1 3404:1 3435:1 3438:1 3532:1 3636:1 3673:1 3763:1 3895:2 3898:2 3906:2 3938:1 3949:1 4002:4 4082:2 4104:1 4112:1 4163:1 4204:1 4208:1 4221:1 4236:1 4295:1 4384:1 4401:1 4412:1 4454:1 4462:1 4463:1 4471:1 4528:1 4532:1 4547:1 4550:1 4567:1 4591:1 4612:1 4639:5 4643:1 4644:2 4665:1 4728:1 4822:1 4852:1 4869:1 4895:1 4896:1 4898:1 4956:1 5014:1 5094:1 5111:1 5112:2 5113:1 5127:1 5152:1 5215:1 5252:1 5373:1 5403:1 5582:1 5605:1 5612:1 5620:1 5691:1 5720:1 5754:1 5756:1 5869:1 5919:2 5975:1 6014:4 6016:1 6032:1 6113:1 6128:1 6152:1 6163:1 6215:3 6242:1 6247:1 6277:1 6295:1 6436:1 6440:1 6492:1 6501:2 6519:1 6616:1 #algo
-0.012471031941119101529857893240205 83:1 163:1 215:3 247:1 301:1 381:1 385:1 404:1 435:1 438:1 532:1 636:1 673:1 763:1 895:2 898:2 906:2 938:1 949:1 1002:4 1082:2 1104:1 1112:1 1163:1 1204:1 1208:1 1221:1 1236:1 1295:1 1384:1 1401:1 1412:1 1454:1 1462:1 1463:1 1471:1 1528:1 1532:1 1547:1 1550:1 1567:1 1591:1 1612:1 1639:5 1643:1 1644:2 1665:1 1728:1 1822:1 1852:1 1869:1 1895:1 1896:1 1898:1 1956:1 2014:1 2094:1 2111:1 2112:2 2113:1 2127:1 2152:1 2215:1 2252:1 2373:1 2403:1 2582:1 2605:1 2612:1 2620:1 2691:1 2720:1 2754:1 2756:1 2869:1 2919:2 2975:1 3014:4 3016:1 3032:1 3113:1 3128:1 3152:1 3163:1 3215:3 3242:1 3247:1 3277:1 3295:1 3436:1 3440:1 3492:1 3501:2 3519:1 3616:1 3754:1 3824:1 3852:1 3951:1 3975:1 3982:1 4004:1 4022:1 4143:2 4208:2 4215:3 4295:1 4339:1 4371:1 4381:2 4401:1 4483:1 4519:2 4634:1 4665:1 4673:1 4682:1 4802:1 4869:1 4889:1 4898:4 4905:1 4919:1 4927:1 4942:1 4963:1 4975:1 4993:1 5004:1 5014:1 5148:1 5163:1 5215:1 5221:1 5232:1 5242:2 5264:1 5281:1 5286:1 5323:3 5324:1 5384:1 5420:1 5432:1 5462:1 5467:1 5490:1 5552:1 5627:1 5665:1 5731:1 5803:1 5819:1 5822:1 5852:1 5869:1 5875:1 5898:3 5930:1 5935:1 5947:1 5948:1 5961:1 5962:1 5963:1 5966:1 5990:1 6002:2 6014:1 6019:1 6021:1 6094:1 6103:1 6149:1 6242:2 6247:1 6262:1 6264:3 6270:3 6271:1 6305:2 6322:2 6357:1 6361:1 6381:1 6385:1 6397:1 6400:1 6414:1 6436:1 6442:2 6448:1 6476:1 6477:2 6546:1 6591:1 6612:1 #algo
0.016981415652438918567623815647494 252:1 810:1 1232:1 1358:1 1810:1 2073:2 2120:1 2161:1 2178:1 2208:1 2215:1 2247:1 2269:1 2304:1 2358:1 2402:1 2698:1 2758:1 2810:2 2812:3 3056:1 3125:1 3174:1 3213:2 3215:1 3270:1 3312:1 3323:2 3349:1 3360:1 3549:1 3741:1 3758:1 3812:1 4056:1 4142:2 4242:1 4273:1 4290:1 4372:1 4489:1 4570:1 4603:1 4660:1 4822:1 4842:1 4869:2 4897:1 4950:2 5014:1 5084:1 5103:1 5123:1 5171:1 5213:1 5242:1 5247:1 5439:1 5577:1 5612:1 5640:3 5822:1 5869:1 5898:1 5919:3 5943:1 5948:1 5954:1 5975:2 5983:1 6062:1 6117:1 6213:1 6215:1 6223:1 6236:1 6292:1 6295:1 6307:1 6418:1 6501:2 6518:1 6519:1 6539:1 6624:1 6629:1 #algo
0.015485418632124440391217845558458 232:1 358:1 810:1 1073:2 1120:1 1161:1 1178:1 1208:1 1215:1 1247:1 1269:1 1304:1 1358:1 1402:1 1698:1 1758:1 1810:2 1812:3 2056:1 2125:1 2174:1 2213:2 2215:1 2270:1 2312:1 2323:2 2349:1 2360:1 2549:1 2741:1 2758:1 2812:1 3056:1 3142:2 3242:1 3273:1 3290:1 3372:1 3489:1 3570:1 3603:1 3660:1 3822:1 3842:1 3869:2 3897:1 3950:2 4014:1 4084:1 4103:1 4123:1 4171:1 4213:1 4242:1 4247:1 4439:1 4577:1 4612:1 4640:3 4822:1 4869:1 4898:1 4919:3 4943:1 4948:1 4954:1 4975:2 4983:1 5062:1 5117:1 5213:1 5215:1 5223:1 5236:1 5292:1 5295:1 5307:1 5418:1 5501:2 5518:1 5519:1 5539:1 5624:1 5629:1 5665:1 5688:1 5776:1 5810:1 5842:1 5852:2 5897:1 5898:1 5915:1 5939:1 5945:1 5948:1 5954:1 5975:2 6014:1 6142:1 6215:1 6270:2 6292:1 6417:1 6442:1 6492:1 6499:1 6573:1 6639:1 #algo
0.0026678642944574413285729885814135 73:2 120:1 161:1 178:1 208:1 215:1 247:1 269:1 304:1 358:1 402:1 698:1 758:1 810:2 812:3 1056:1 1125:1 1174:1 1213:2 1215:1 1270:1 1312:1 1323:2 1349:1 1360:1 1549:1 1741:1 1758:1 1812:1 2056:1 2142:2 2242:1 2273:1 2290:1 2372:1 2489:1 2570:1 2603:1 2660:1 2822:1 2842:1 2869:2 2897:1 2950:2 3014:1 3084:1 3103:1 3123:1 3171:1 3213:1 3242:1 3247:1 3439:1 3577:1 3612:1 3640:3 3822:1 3869:1 3898:1 3919:3 3943:1 3948:1 3954:1 3975:2 3983:1 4062:1 4117:1 4213:1 4215:1 4223:1 4236:1 4292:1 4295:1 4307:1 4418:1 4501:2 4518:1 4519:1 4539:1 4624:1 4629:1 4665:1 4688:1 4776:1 4810:1 4842:1 4852:2 4897:1 4898:1 4915:1 4939:1 4945:1 4948:1 4954:1 4975:2 5014:1 5142:1 5215:1 5270:2 5292:1 5417:1 5442:1 5492:1 5499:1 5573:1 5639:1 5665:1 5673:4 5680:3 5690:2 5733:1 5748:1 5749:2 5776:1 5795:1 5863:1 5895:1 5897:1 5898:6 5919:1 5937:1 5949:1 5984:1 6001:2 6021:1 6080:1 6108:1 6171:1 6384:1 6402:1 6420:1 6541:1 6577:1 6612:2 6619:5 6639:1 6644:1 #algo
0.0003948240857890254057460666103907 56:1 125:1 174:1 213:2 215:1 270:1 312:1 323:2 349:1 360:1 549:1 741:1 758:1 812:1 1056:1 1142:2 1242:1 1273:1 1290:1 1372:1 1489:1 1570:1 1603:1 1660:1 1822:1 1842:1 1869:2 1897:1 1950:2 2014:1 2084:1 2103:1 2123:1 2171:1 2213:1 2242:1 2247:1 2439:1 2577:1 2612:1 2640:3 2822:1 2869:1 2898:1 2919:3 2943:1 2948:1 2954:1 2975:2 2983:1 3062:1 3117:1 3213:1 3215:1 3223:1 3236:1 3292:1 3295:1 3307:1 3418:1 3501:2 3518:1 3519:1 3539:1 3624:1 3629:1 3665:1 3688:1 3776:1 3810:1 3842:1 3852:2 3897:1 3898:1 3915:1 3939:1 3945:1 3948:1 3954:1 3975:2 4014:1 4142:1 4215:1 4270:2 4292:1 4417:1 4442:1 4492:1 4499:1 4573:1 4639:1 4665:1 4673:4 4680:3 4690:2 4733:1 4748:1 4749:2 4776:1 4795:1 4863:1 4895:1 4897:1 4898:6 4919:1 4937:1 4949:1 4984:1 5001:2 5021:1 5080:1 5108:1 5171:1 5384:1 5402:1 5420:1 5541:1 5577:1 5612:2 5619:5 5639:1 5644:1 5665:1 5690:1 5692:1 5802:1 5822:3 5869:1 5873:1 5898:2 5906:2 5931:1 6001:3 6014:2 6042:2 6094:2 6236:1 6264:1 6270:1 6272:1 6292:2 6295:1 6305:2 6380:1 6388:1 6639:1 6644:2 #algo
0.0067279680624797392335390000539519 2:2 79:1 111:1 142:1 175:2 215:1 346:1 463:1 513:3 523:3 525:1 526:1 533:1 597:1 639:6 644:2 665:1 687:1 731:1 814:2 895:1 898:1 906:1 919:2 925:1 1002:1 1123:1 1142:1 1181:1 1215:1 1242:1 1269:1 1273:2 1295:1 1472:1 1488:1 1513:1 1523:2 1546:1 1639:2 1641:1 1665:1 1673:1 1692:1 1786:1 1852:1 1869:1 1898:2 1919:1 1986:1 2000:1 2001:1 2014:3 2258:1 2260:1 2266:1 2414:1 2541:1 2551:2 2584:1 2587:1 2599:1 2641:1 2665:1 2762:1 2822:1 2919:1 2945:1 3014:2 3094:1 3386:1 3424:1 3572:1 3608:1 3665:1 3687:1 3838:1 3869:1 3948:1 4001:1 4014:1 4085:1 4215:1 4323:2 4356:1 4438:1 4665:1 4788:1 4821:1 4898:4 4912:1 4948:1 4950:1 4984:1 5002:2 5197:1 5215:1 5260:1 5301:1 5327:1 5381:1 5422:1 5665:1 5691:1 5895:1 5949:1 6002:2 6215:2 6242:1 6356:1 6384:1 6427:1 6595:1 6639:1 #algo
-0.012428205572745419996150140207192 10:3 11:1 13:2 161:1 176:1 208:2 215:6 247:1 253:1 288:1 295:5 413:1 420:1 434:2 439:1 449:1 501:3 526:1 538:1 539:1 598:1 656:1 731:1 755:2 810:4 824:1 852:1 895:1 919:1 923:1 926:1 927:1 938:1 948:1 1038:1 1102:1 1134:1 1195:1 1196:1 1215:3 1242:1 1296:1 1297:1 1323:2 1400:2 1430:1 1435:1 1449:1 1467:1 1469:1 1485:1 1501:1 1508:1 1535:1 1574:1 1575:1 1599:1 1612:1 1639:1 1644:1 1665:1 1673:1 1702:1 1729:1 1766:2 1822:1 1825:1 1843:1 1869:1 1881:1 1883:1 1916:1 1924:1 1939:1 1942:2 1951:1 1972:1 2014:1 2042:1 2061:1 2103:1 2104:2 2105:1 2146:1 2152:1 2215:1 2234:1 2257:1 2261:1 2264:1 2281:1 2292:1 2295:1 2305:1 2307:1 2345:1 2384:1 2420:2 2442:1 2444:1 2522:1 2589:1 2593:1 2601:1 2641:2 2673:1 2686:1 2702:1 2731:2 2754:1 2822:1 2830:1 2836:3 2852:1 2869:1 2898:3 2912:1 2919:1 2948:1 2950:1 2994:1 3001:3 3002:2 3014:1 3021:1 3031:1 3082:1 3089:1 3131:1 3152:2 3163:2 3242:2 3257:1 3258:1 3266:1 3270:1 3292:1 3294:1 3330:2 3332:1 3360:1 3363:1 3384:1 3416:1 3436:3 3501:1 3514:1 3523:3 3572:1 3612:2 3619:2 3639:5 3665:1 3673:2 3687:1 3700:2 3702:3 3703:1 3704:1 3757:2 3767:1 3775:1 3801:2 3822:4 3824:3 3852:1 3862:2 3869:2 3919:3 3921:1 3923:1 3948:1 3949:1 3950:2 3975:1 4004:1 4012:1 4014:6 4021:1 4040:1 4152:2 4156:2 4180:1 4187:1 4196:1 4215:2 4237:1 4240:1 4246:1 4252:1 4296:1 4310:1 4385:1 4424:1 4436:1 4449:1 4453:1 4501:1 4579:1 4593:1 4665:1 4674:1 4675:1 4680:1 4686:1 4691:1 4702:1 4726:1 4753:1 4810:1 4822:1 4852:1 4869:1 4919:1 4923:2 4939:1 4942:1 4975:2 4994:1 4996:1 4998:1 5002:3 5004:1 5011:1 5022:1 5031:3 5060:2 5084:1 5103:2 5121:1 5146:1 5214:1 5215:2 5250:1 5254:1 5270:1 5351:1 5355:2 5375:1 5381:2 5382:1 5384:1 5426:1 5436:1 5458:1 5500:1 5556:1 5591:1 5639:7 5644:1 5665:1 5670:1 5731:1 5792:2 5793:2 5819:1 5834:1 5862:1 5869:1 5895:6 5898:3 5903:1 5906:6 5912:1 5919:1 5923:1 5927:1 5934:1 5937:3 5939:1 5948:1 5978:1 5994:1 6001:1 6002:5 6031:3 6035:1 6052:1 6094:2 6130:1 6136:1 6142:1 6174:1 6202:1 6208:1 6215:1 6236:2 6249:1 6315:1 6318:1 6323:1 6355:3 6373:1 6382:1 6383:1 6384:1 6436:1 6463:3 6476:3 6501:1 6513:4 6541:6 6612:2 6639:21 6640:1 6644:4 6647:1 6653:1 #algo
-0.0040377089059888526118013984955724 200:1 292:2 810:1 1723:1 2157:1 2184:1 2686:1 2700:1 3002:1 3200:1 3400:1 3644:1 3754:1 4292:1 5157:1 5686:1 6002:1 6014:1 6094:1 6292:2 6591:1 #algo
-0.0048346527890849623487756758777323 14:3 16:1 158:1 236:1 258:1 384:1 424:1 554:1 555:1 639:2 644:1 665:1 783:1 948:1 951:1 975:1 1159:1 1195:1 1197:1 1355:1 1488:1 1513:1 1592:1 1679:1 1731:1 1819:1 1869:1 1884:1 1898:5 1906:1 1937:1 1945:1 1948:1 2002:2 2014:1 2075:1 2155:1 2163:1 2197:1 2215:1 2265:1 2270:1 2295:1 2400:1 2424:1 2429:1 2488:1 2541:1 2567:1 2570:1 2577:1 2589:1 2621:1 2639:1 2665:1 2702:1 2763:1 2810:1 2898:1 2912:1 3075:1 3084:1 3142:1 3285:1 3401:1 3463:1 3484:1 3491:1 3513:1 3539:1 3591:1 3794:1 3889:1 3898:1 4215:1 4305:1 4317:1 4499:1 4601:1 4612:2 4614:1 4660:1 4665:1 4861:1 4898:1 4912:1 5001:1 5197:1 5264:1 5292:1 5601:1 5603:1 5698:1 5824:1 5850:1 5898:1 5907:1 5919:1 5922:1 5936:1 6004:1 6203:1 6307:1 6376:1 6492:1 #algo
-0.010130474013888959849971627136256 2:1 371:1 372:1 384:1 422:1 665:1 1215:1 1501:1 1665:1 1810:1 1852:1 2036:1 2589:1 2869:1 2890:1 3001:1 3215:1 3284:1 3596:1 3674:1 3810:1 3869:2 3950:1 3958:1 4014:1 4175:1 4179:1 4423:1 4919:1 5206:2 5292:1 5589:1 5766:1 5869:1 6001:1 6014:2 6018:1 6258:1 6660:1 #algo
-0.017462849160881841609205267218385 2:1 14:1 135:1 168:1 215:5 295:1 323:2 358:2 363:1 401:1 513:1 639:2 665:1 687:1 730:3 852:1 863:2 866:1 867:2 869:1 919:1 975:2 994:1 1292:1 1420:1 1898:1 1912:1 1948:1 2016:1 2242:1 2251:1 2281:1 2288:1 2355:1 2487:1 2529:1 2665:1 2726:2 2886:1 2898:2 3002:2 3016:1 3059:1 3084:1 3094:1 3103:1 3143:2 3172:1 3215:1 3264:1 3358:2 3385:1 3436:1 3459:1 3465:1 3565:1 3571:1 3686:1 3687:1 3730:2 3731:1 3793:1 3886:1 3948:1 3995:1 4001:1 4050:1 4170:1 4215:1 4254:2 4270:1 4397:1 4529:1 4644:1 4665:1 4691:1 4819:1 4852:1 5113:1 5242:1 5284:1 5295:1 5355:1 5381:1 5439:1 5597:2 5713:1 5726:1 5731:1 5852:1 5869:1 5898:5 5903:1 6001:1 6002:2 6014:1 6021:1 6188:1 6236:1 6242:1 6323:1 6347:1 6427:1 6454:1 6478:1 6523:1 6596:1 6639:2 6644:1 #algo
-0.0095520882226209566367991499191703 2:2 3:1 14:2 51:1 94:2 104:1 133:1 135:1 232:1 281:1 381:1 385:1 400:1 401:1 406:1 443:1 458:1 501:1 513:3 541:1 574:1 639:5 644:3 750:1 824:1 839:1 895:2 898:2 919:1 939:1 945:1 1002:1 1016:2 1053:1 1104:1 1133:1 1294:1 1384:2 1430:1 1493:1 1513:4 1541:1 1617:1 1638:1 1639:6 1644:2 1692:2 1786:1 1799:1 1822:1 1862:1 1898:1 2001:2 2002:2 2014:3 2171:1 2238:1 2281:1 2305:1 2355:1 2371:1 2372:1 2381:1 2382:1 2421:1 2427:1 2523:1 2593:1 2628:1 2638:1 2639:1 2644:1 2701:1 2786:1 2842:1 2895:1 2898:2 2969:1 2984:1 2997:1 3001:1 3014:1 3016:2 3052:1 3132:1 3197:1 3231:1 3233:1 3236:1 3242:1 3381:1 3400:2 3492:1 3541:1 3607:1 3639:2 3644:1 3660:1 3919:2 4001:1 4014:1 4021:1 4074:1 4118:1 4152:1 4180:1 4215:1 4242:1 4461:1 4644:1 4665:1 4730:1 4786:1 4898:4 4919:1 4945:1 4948:1 4984:2 5001:1 5002:3 5004:1 5022:1 5032:1 5053:1 5098:1 5178:2 5182:1 5208:1 5215:1 5242:1 5264:2 5309:1 5323:1 5355:1 5422:1 5424:1 5459:1 5501:1 5513:2 5514:1 5621:2 5638:2 5639:5 5644:2 5665:1 5702:1 5786:1 5804:1 5852:2 5895:1 5898:3 5945:1 5976:1 5984:1 6002:1 6009:1 6062:1 6143:1 6168:1 6420:1 6440:1 6458:1 6541:1 6612:1 6621:1 6639:2 6644:1 #algo
0.0034140301337383894761390301653137 2:2 16:1 27:1 47:1 53:1 94:1 121:1 167:1 201:2 211:1 212:1 215:2 244:1 295:1 307:1 350:1 355:3 384:1 394:1 402:1 440:1 488:1 519:1 533:1 537:1 548:1 587:1 612:1 632:1 639:2 665:1 731:2 741:1 759:1 780:1 786:2 822:1 852:1 869:1 893:1 895:5 898:52 906:1 919:1 927:1 945:6 962:3 984:1 986:1 1001:2 1002:21 1014:2 1027:1 1031:3 1038:1 1054:1 1059:1 1098:1 1142:1 1169:1 1171:2 1215:1 1232:1 1236:1 1256:1 1264:2 1270:2 1292:1 1295:3 1358:1 1371:1 1384:1 1394:2 1416:1 1422:1 1429:2 1430:1 1439:1 1447:3 1454:1 1465:1 1472:3 1476:3 1478:1 1488:1 1513:2 1523:1 1541:3 1542:1 1552:1 1567:1 1583:1 1587:1 1591:2 1625:1 1635:2 1639:23 1644:2 1646:1 1665:1 1715:1 1730:1 1777:1 1816:1 1822:1 1862:1 1869:1 1898:1 1919:1 1921:1 1948:1 2152:1 2156:1 2180:1 2245:1 2273:1 2330:1 2370:1 2384:1 2449:1 2486:1 2601:1 2644:1 2665:1 2752:1 2895:1 2919:2 2948:3 2950:1 3014:2 3016:1 3156:1 3170:1 3211:1 3215:1 3273:1 3295:1 3305:1 3412:1 3446:1 3449:1 3518:1 3558:1 3612:1 3644:1 3665:1 3738:1 3873:1 3898:3 3912:2 3919:1 3942:1 3950:1 3954:1 4001:1 4002:2 4014:1 4122:1 4152:1 4164:1 4228:1 4405:1 4458:1 4459:2 4463:1 4471:1 4559:2 4574:1 4576:1 4600:1 4639:4 4644:3 4665:1 4673:2 4862:1 4895:2 4898:6 4919:1 4927:2 4936:2 4948:1 4951:1 5002:3 5031:1 5171:1 5184:2 5208:1 5305:1 5433:2 5485:1 5533:1 5576:1 5606:1 5612:1 5665:1 5672:1 5898:1 6041:1 6084:1 6246:1 6247:1 6258:1 6308:3 6323:1 6355:1 6381:1 6440:1 6459:3 6476:2 6488:1 6548:1 6573:2 6576:2 6608:2 #algo
0.0022291384524040888832907558736451 2:1 31:1 94:1 120:1 149:1 207:1 215:1 225:1 244:1 287:1 305:1 317:1 355:1 384:1 414:1 420:1 430:2 463:1 470:1 523:1 549:1 552:10 604:1 612:2 614:1 620:1 633:1 639:1 658:1 665:1 675:1 869:4 898:1 924:1 948:1 1001:4 1002:2 1014:9 1149:3 1215:1 1242:1 1287:1 1330:2 1385:1 1406:1 1416:1 1420:1 1440:1 1471:1 1474:1 1519:1 1520:1 1527:1 1552:3 1556:1 1614:1 1615:1 1665:1 1673:2 1740:1 1754:9 1822:1 1842:3 1919:5 1948:1 1972:1 1975:2 1994:1 2001:1 2003:2 2004:1 2014:5 2021:1 2108:1 2175:1 2215:2 2262:1 2287:1 2288:1 2292:1 2355:1 2388:1 2436:1 2440:1 2462:2 2541:1 2552:2 2591:2 2603:1 2665:1 2782:1 2784:1 2809:1 2844:1 2862:2 2869:1 2895:1 2898:1 2919:1 2938:1 2939:1 2940:1 2945:1 3001:2 3002:1 3004:1 3014:2 3047:1 3118:1 3136:1 3163:1 3184:3 3215:2 3282:1 3323:1 3356:1 3363:1 3381:2 3385:1 3406:1 3412:1 3416:1 3474:1 3501:1 3513:1 3552:1 3566:3 3630:1 3644:3 3661:2 3665:1 3687:1 3786:1 3790:1 3822:1 3840:1 3852:1 3862:2 3869:1 3895:2 3896:2 3898:7 3912:4 3919:1 3925:1 3927:1 3938:1 3939:1 3945:1 3954:1 3962:1 3984:1 3990:1 4001:2 4002:8 4014:2 4124:1 4171:1 4215:1 4258:1 4265:2 4295:1 4296:1 4315:1 4355:1 4373:1 4384:2 4400:3 4416:1 4446:1 4454:1 4457:2 4465:1 4467:1 4471:1 4474:1 4476:2 4483:1 4501:2 4513:3 4519:1 4539:1 4541:2 4587:1 4591:1 4617:1 4634:1 4639:3 4665:1 4667:1 4673:2 4680:1 4682:1 4692:1 4694:1 4758:1 4783:1 4810:3 4895:2 4898:2 4927:1 4963:1 5002:1 5013:1 5015:1 5094:1 5215:1 5221:1 5254:2 5287:3 5294:1 5384:1 5566:1 5619:2 5639:1 5644:2 5647:1 5665:1 5667:2 5673:1 5687:1 5692:1 5702:1 5766:1 5824:1 5898:2 5979:1 5994:1 6001:2 6002:2 6061:1 6068:3 6094:2 6132:1 6152:1 6249:1 6294:3 6297:1 6422:1 6438:1 6440:1 6492:1 6513:1 6574:1 6627:1 6639:1 6644:1 6647:1 #algo
-0.019273645401911378149950593297035 292:1 577:1 644:1 681:1 895:1 1644:1 1687:1 2200:1 2292:2 2810:1 3723:1 4157:1 4184:1 4686:1 4700:1 5002:1 5200:1 5400:1 5644:1 5754:1 6292:1 #algo
0.0056918579306644958085148466864212 1:2 2:5 14:1 31:1 63:1 131:1 136:1 152:2 215:3 232:1 247:1 295:1 332:1 358:1 381:1 422:1 424:1 433:1 449:1 459:1 463:1 488:1 505:1 549:1 578:2 606:1 614:1 639:2 644:2 665:1 764:1 852:1 884:2 886:1 895:2 898:10 927:2 950:3 983:3 984:2 985:1 994:1 1001:2 1002:1 1007:1 1023:1 1057:1 1094:1 1105:1 1166:1 1175:1 1185:1 1215:1 1236:1 1294:1 1355:2 1358:1 1400:1 1440:1 1471:1 1475:1 1539:1 1541:1 1566:1 1604:1 1605:1 1612:1 1639:1 1680:1 1700:1 1757:1 1822:1 1852:1 1876:3 1895:6 1898:8 1903:1 1906:2 1919:1 1927:2 1938:1 1939:2 1950:1 1954:1 2002:7 2021:1 2050:1 2104:1 2112:1 2152:1 2171:1 2215:1 2244:1 2278:1 2332:1 2350:1 2398:1 2413:1 2422:1 2440:1 2458:1 2465:1 2495:1 2566:2 2606:1 2612:2 2619:1 2629:1 2639:4 2665:1 2682:1 2742:1 2763:1 2810:1 2822:2 2869:1 2895:2 2912:1 2919:1 2928:1 2940:1 2951:1 3002:1 3212:1 3294:1 3295:1 3436:1 3443:1 3449:1 3591:2 3614:1 3619:2 3639:2 3665:1 3822:2 3834:1 3842:1 3862:1 3895:2 3898:3 3991:1 4002:2 4133:1 4294:2 4361:1 4422:1 4497:1 4577:1 4665:1 4672:1 4822:1 4884:1 4912:1 4919:1 4927:1 5001:1 5021:1 5104:1 5295:1 5358:1 5577:1 5639:4 5644:2 5681:1 5746:1 5822:1 5884:1 5895:1 5900:1 5906:2 5927:1 5978:1 6001:1 6031:1 6215:1 6234:1 6295:1 6497:1 6532:1 6619:1 6639:5 6644:1 6647:1 6655:1 #algo
-0.005693597561291614643497194236943 1:1 2:2 21:2 22:1 23:2 39:1 40:2 44:1 63:2 66:1 70:1 94:1 133:1 136:2 152:1 164:6 167:2 215:1 232:1 238:2 295:3 305:1 320:1 369:1 381:4 385:1 390:2 406:1 409:1 424:1 433:3 434:1 435:1 443:1 455:1 459:2 463:2 475:3 508:1 514:2 519:1 577:2 612:1 639:2 644:1 660:2 665:1 673:1 680:1 822:2 824:1 851:1 852:1 862:1 895:7 898:24 902:2 906:2 912:4 919:3 927:3 936:1 937:1 949:4 950:1 954:1 963:1 964:1 971:1 975:2 984:1 1001:4 1002:10 1012:1 1014:1 1038:1 1063:1 1072:1 1112:1 1115:1 1139:3 1152:1 1163:4 1169:1 1178:1 1180:1 1181:1 1190:1 1215:3 1234:3 1236:1 1242:2 1245:1 1250:2 1260:2 1292:1 1296:1 1305:2 1320:1 1334:1 1354:1 1371:1 1384:1 1420:1 1424:4 1426:2 1430:1 1438:1 1463:1 1471:1 1473:1 1474:1 1476:5 1496:1 1501:3 1513:1 1541:4 1542:1 1557:2 1565:3 1566:1 1577:1 1584:1 1591:2 1601:2 1612:3 1618:3 1619:2 1635:1 1639:3 1644:6 1665:1 1674:1 1689:1 1691:1 1756:1 1773:1 1779:1 1788:1 1810:2 1822:4 1862:2 1869:1 1884:1 1898:1 1919:3 1954:1 1975:1 1996:1 2001:4 2002:1 2013:1 2021:1 2052:2 2064:1 2101:1 2133:1 2180:1 2215:1 2263:1 2267:1 2276:1 2282:1 2292:1 2295:1 2305:1 2318:1 2360:1 2378:1 2409:1 2416:1 2459:1 2488:1 2489:1 2501:1 2505:1 2508:1 2612:1 2620:1 2665:1 2682:1 2692:1 2750:1 2810:1 2831:1 2862:3 2864:1 2869:2 2880:1 2895:3 2898:6 2912:1 2919:4 2927:2 2937:1 2948:1 2954:1 2975:1 2983:2 2985:1 3001:1 3002:5 3004:1 3066:5 3094:1 3139:2 3163:1 3180:3 3201:1 3208:1 3215:1 3234:1 3292:1 3323:1 3336:1 3357:1 3381:1 3402:1 3424:2 3426:1 3433:1 3440:2 3463:2 3467:1 3476:2 3500:1 3505:2 3508:1 3513:1 3534:1 3541:2 3591:1 3599:1 3601:1 3606:1 3610:1 3619:1 3639:3 3663:1 3665:1 3674:1 3702:1 3710:1 3718:1 3730:1 3790:1 3810:1 3819:1 3834:1 3836:1 3842:1 3857:1 3879:1 3895:2 3898:7 3906:1 3912:2 3919:4 3927:3 3935:1 3938:1 3945:1 3954:1 4001:4 4002:10 4005:1 4014:1 4064:1 4094:1 4123:1 4141:1 4236:2 4242:1 4271:1 4272:2 4295:2 4305:1 4313:1 4320:1 4332:2 4381:1 4384:1 4392:1 4422:1 4424:1 4433:1 4438:2 4440:2 4463:3 4467:4 4495:1 4500:1 4503:2 4508:1 4513:1 4541:4 4566:1 4575:1 4639:4 4644:1 4665:1 4669:1 4682:1 4696:1 4749:1 4754:1 4761:1 4810:1 4822:1 4852:3 4879:1 4895:4 4898:11 4905:1 4906:1 4919:1 4927:2 4940:1 4945:1 4958:1 4962:1 4975:1 4995:1 5001:2 5002:5 5014:1 5031:1 5063:1 5131:1 5136:1 5152:2 5215:3 5232:1 5247:1 5295:1 5332:1 5358:1 5381:1 5422:1 5424:1 5433:1 5449:1 5459:1 5463:1 5488:1 5505:1 5549:1 5578:2 5606:1 5614:1 5639:2 5644:2 5665:1 5764:1 5852:1 5884:2 5886:1 5895:2 5898:10 5927:2 5950:3 5983:3 5984:2 5985:1 5994:1 6001:2 6002:1 6007:1 6023:1 6057:1 6094:1 6105:1 6166:1 6175:1 6185:1 6215:1 6236:1 6294:1 6355:2 6358:1 6400:1 6440:1 6471:1 6475:1 6539:1 6541:1 6566:1 6604:1 6605:1 6612:1 6639:1 #algo
-0.0085795973769281757420612777309543 2:1 103:1 138:1 215:1 243:1 260:1 302:1 345:1 501:1 541:1 612:1 742:1 762:1 766:1 767:1 792:1 801:1 895:5 898:11 919:1 925:1 927:3 945:1 948:1 995:1 1001:3 1002:7 1014:1 1101:1 1111:1 1152:2 1178:1 1254:1 1295:1 1312:1 1426:4 1458:1 1462:1 1472:1 1476:1 1513:2 1528:1 1556:1 1576:1 1591:1 1621:2 1665:1 1691:1 1718:1 1801:1 1808:1 1810:1 1822:1 1828:1 1862:1 1863:1 1919:2 1948:1 1949:1 1954:1 1970:1 1994:1 2001:2 2004:1 2016:1 2103:2 2132:1 2178:1 2215:2 2242:1 2292:1 2295:2 2420:1 2435:1 2590:1 2692:1 2742:1 2822:1 2824:1 2869:1 2887:1 2895:2 2898:2 2903:1 2906:1 2939:1 2945:2 2954:2 2962:1 3001:1 3002:2 3119:2 3215:1 3242:5 3402:1 3426:3 3430:1 3433:1 3440:1 3444:1 3479:1 3497:1 3600:1 3604:1 3612:2 3639:2 3644:1 3660:1 3665:1 3694:1 3703:1 3722:1 3801:1 3895:2 3898:7 3927:1 4002:2 4004:2 4059:2 4060:1 4098:1 4131:1 4152:1 4215:2 4295:2 4344:1 4360:1 4384:1 4388:1 4402:1 4420:1 4440:1 4448:1 4463:1 4488:1 4513:1 4541:1 4570:1 4590:1 4591:1 4593:1 4644:1 4665:1 4700:1 4754:1 4788:1 4810:1 4824:1 4827:1 4840:1 4862:1 4897:1 4919:1 4945:2 4953:1 5014:1 5059:1 5082:1 5209:1 5225:1 5263:1 5295:1 5402:1 5420:1 5422:1 5471:1 5513:1 5519:1 5523:1 5533:1 5569:1 5604:1 5618:1 5684:1 5898:2 5912:1 5919:1 5948:1 6002:1 6094:1 6120:1 6152:1 6169:1 6176:1 6242:1 6256:1 6277:2 6295:1 6305:1 6355:1 6360:2 6381:1 6384:2 6420:1 6426:1 6501:1 6514:1 6517:1 6520:1 6521:1 6539:3 6546:1 6566:1 6644:1 #algo
-0.0057546005186142751286482166506175 2:2 4:1 14:1 16:1 113:1 133:1 163:1 175:1 177:1 215:3 239:1 245:1 251:1 263:1 264:1 272:3 284:2 285:1 323:3 355:3 369:3 381:2 383:1 403:2 409:1 410:2 420:1 421:1 440:1 472:1 473:1 501:2 513:1 528:1 538:1 539:2 562:2 593:2 624:1 644:2 650:1 665:1 675:2 697:1 703:1 751:1 775:1 786:1 799:1 801:1 810:1 819:1 851:1 862:1 898:12 912:3 919:2 927:1 936:1 937:2 938:1 945:1 950:1 1002:7 1013:1 1031:2 1071:1 1073:1 1142:2 1146:1 1174:1 1182:1 1186:3 1215:1 1236:2 1242:1 1246:1 1248:1 1256:1 1262:1 1264:2 1265:1 1266:1 1270:1 1305:1 1312:1 1319:1 1328:1 1335:1 1341:1 1384:1 1418:2 1433:1 1461:2 1472:2 1476:1 1483:1 1488:1 1513:7 1528:3 1541:2 1557:1 1587:1 1591:1 1594:1 1597:1 1601:1 1619:1 1639:15 1644:3 1653:1 1660:1 1665:1 1673:1 1687:2 1745:1 1754:1 1780:1 1788:1 1791:1 1801:1 1810:1 1822:1 1824:1 1862:1 1869:5 1877:1 1895:3 1898:5 1912:1 1932:1 1948:1 1975:2 1979:1 2001:8 2002:2 2014:1 2102:1 2178:1 2182:1 2203:1 2207:1 2208:2 2209:1 2211:1 2264:1 2292:1 2354:1 2384:1 2386:1 2403:1 2422:1 2440:1 2457:1 2472:1 2513:1 2519:1 2541:1 2584:1 2585:1 2601:1 2603:1 2631:1 2639:1 2644:3 2665:1 2697:1 2698:1 2703:1 2715:1 2764:1 2791:1 2793:1 2801:1 2802:2 2822:1 2830:1 2851:1 2858:1 2862:1 2869:2 2898:2 2919:2 2931:1 2933:1 2954:1 2973:1 2975:1 2981:1 2996:1 3001:1 3002:1 3014:1 3016:1 3056:1 3087:2 3095:1 3100:1 3152:1 3163:2 3219:1 3221:1 3270:1 3297:1 3305:1 3318:1 3332:1 3354:3 3358:2 3361:2 3388:1 3404:1 3409:1 3414:1 3417:1 3469:1 3473:1 3492:1 3501:2 3513:1 3514:1 3526:1 3554:1 3557:1 3587:1 3589:1 3601:2 3612:2 3628:1 3633:1 3684:1 3687:1 3740:1 3817:1 3852:1 3884:1 3898:3 3912:2 3919:2 3931:1 3948:1 3994:1 4001:1 4002:2 4004:1 4014:2 4072:1 4088:1 4089:2 4107:1 4178:1 4196:1 4236:1 4246:1 4247:1 4256:1 4266:1 4267:1 4278:1 4319:1 4354:1 4355:1 4381:2 4408:1 4427:2 4440:1 4458:1 4514:1 4582:1 4584:1 4593:1 4602:1 4628:1 4649:1 4665:1 4716:1 4733:2 4734:3 4739:1 4766:1 4791:1 4801:1 4850:1 4877:1 4891:3 4895:1 4898:13 4906:1 4919:3 4927:1 4937:1 4945:2 4948:1 4954:1 4966:1 4975:2 5002:3 5014:1 5100:1 5131:1 5146:1 5176:1 5197:1 5205:1 5209:1 5236:1 5237:1 5244:1 5293:1 5295:2 5296:1 5340:1 5355:1 5385:1 5400:1 5406:1 5408:1 5414:7 5432:1 5471:3 5492:1 5513:1 5519:1 5564:1 5593:1 5601:1 5621:1 5623:1 5629:1 5634:1 5639:1 5665:1 5740:1 5810:1 5822:1 5825:1 5858:1 5869:1 5891:1 5898:6 5899:2 5919:1 5939:1 5983:1 6002:2 6014:1 6134:1 6178:1 6185:1 6215:1 6233:2 6242:1 6292:1 6305:1 6307:1 6354:1 6384:1 6454:3 6501:2 6549:1 6589:1 6591:1 6593:1 6594:1 6612:2 #algo
-0.0064516332669012493861160351116268 1:1 29:1 54:1 152:1 181:1 207:1 208:1 238:1 292:1 355:1 424:1 541:1 633:1 634:1 644:1 667:2 673:1 762:1 822:1 840:1 843:1 869:1 890:1 895:1 898:8 937:2 945:3 954:1 956:2 984:2 1001:2 1002:3 1011:2 1014:1 1023:1 1123:1 1124:1 1152:1 1210:1 1242:1 1295:1 1330:1 1334:1 1400:4 1414:1 1424:1 1457:1 1463:1 1541:1 1601:1 1608:1 1619:3 1657:1 1665:1 1740:1 1766:1 1782:1 1824:1 1843:1 1885:1 1894:1 1898:2 1919:3 1948:1 1950:1 1973:1 1992:1 2002:1 2004:2 2030:1 2034:1 2120:1 2152:1 2156:1 2208:1 2242:1 2264:1 2269:1 2360:1 2426:1 2497:1 2506:1 2518:1 2619:1 2665:1 2683:1 2895:2 2898:3 2975:1 2984:1 3106:2 3443:1 3458:2 3577:1 3578:1 3599:1 3619:1 3639:2 3665:1 3693:1 3709:1 3766:1 3793:2 3876:1 3895:2 3898:7 3904:1 3911:1 3919:2 3927:1 3942:1 4001:1 4002:3 4060:1 4145:1 4148:1 4426:2 4428:1 4432:2 4476:1 4489:1 4541:3 4594:1 4639:1 4665:1 4692:1 4895:2 4939:1 4945:2 5002:1 5238:1 5360:1 5497:1 5541:1 5576:1 5578:2 5589:1 5619:1 5665:1 5895:1 5898:1 6355:1 6365:1 6652:1 #algo
-0.0017598916464907348334439918247085 2:1 149:1 163:1 215:1 219:1 238:1 305:1 322:1 324:3 344:1 355:1 358:2 420:1 422:1 430:1 518:1 523:1 583:1 587:1 612:4 639:1 660:1 665:1 673:1 730:1 822:2 862:1 869:2 895:1 898:3 914:2 919:1 927:1 939:1 942:1 950:1 975:1 984:1 992:5 1001:2 1002:1 1116:1 1124:1 1136:1 1152:1 1178:1 1215:2 1238:2 1247:1 1264:1 1281:1 1296:1 1297:1 1320:1 1324:1 1441:1 1447:1 1449:1 1497:1 1501:1 1506:1 1527:2 1596:1 1612:1 1627:1 1660:2 1665:1 1673:1 1675:4 1731:1 1750:1 1753:1 1828:1 1842:1 1846:1 1852:1 1855:1 1862:2 1869:2 1895:2 1898:1 1906:1 1919:5 1937:1 1942:2 1945:1 1948:8 1975:1 1983:1 1992:2 1994:1 2002:3 2016:1 2033:1 2075:1 2103:1 2106:1 2124:2 2166:1 2215:1 2230:1 2241:1 2273:1 2280:1 2295:1 2321:1 2424:1 2435:1 2501:1 2546:1 2577:1 2584:1 2591:1 2596:1 2604:1 2641:1 2658:1 2665:1 2679:2 2751:1 2753:1 2815:1 2820:1 2828:1 2840:1 2852:2 2869:1 2893:1 2895:1 2898:3 2912:1 2914:1 2927:1 2929:1 2933:1 3002:1 3011:1 3016:1 3094:1 3106:1 3146:1 3166:1 3230:2 3323:1 3358:1 3384:1 3465:1 3613:1 3639:1 3646:1 3665:1 3731:1 3787:2 3821:1 3822:2 3852:1 3869:3 3893:1 3895:7 3898:16 3906:1 3914:1 3916:1 3927:2 3929:1 3945:2 3959:1 3983:1 3985:1 4001:1 4002:9 4012:1 4151:2 4197:2 4201:1 4215:4 4219:1 4250:1 4264:1 4295:4 4296:1 4332:1 4358:1 4400:1 4415:1 4463:1 4474:1 4476:1 4488:1 4495:1 4501:1 4502:1 4513:5 4541:1 4543:1 4544:1 4567:1 4571:1 4591:1 4603:1 4620:1 4621:3 4639:11 4644:4 4664:1 4665:1 4703:1 4726:1 4801:1 4810:1 4822:1 4869:1 4885:1 4898:3 4899:2 4906:1 4927:1 4939:1 4948:1 4949:1 4959:1 4994:1 5002:1 5098:1 5152:1 5215:3 5253:1 5355:1 5416:1 5427:1 5434:2 5446:2 5454:1 5457:1 5501:1 5514:1 5543:1 5621:2 5639:1 5660:1 5665:1 5697:1 5734:1 5750:1 5801:1 5860:1 5869:1 6019:1 6113:1 6152:1 6183:1 6215:1 6237:1 6311:1 6338:1 6358:1 6400:1 6420:1 6434:1 6440:1 6639:1 6659:1 #algo
-0.0022239081524267332624911208682761 2:1 138:1 149:1 152:1 201:1 218:1 242:1 246:1 281:1 288:1 334:1 373:1 464:1 492:1 579:1 597:1 658:1 665:1 667:1 676:1 680:1 733:1 795:1 822:1 852:1 898:2 912:1 945:1 980:1 997:1 1001:5 1002:2 1059:1 1074:1 1125:1 1149:1 1197:1 1219:1 1256:1 1281:1 1305:1 1358:2 1384:1 1436:1 1471:1 1513:1 1591:1 1618:1 1639:4 1644:2 1660:3 1665:1 1687:1 1754:2 1819:1 1822:1 1866:2 1869:1 1919:1 1948:1 2001:1 2002:1 2017:2 2073:2 2180:3 2183:1 2291:1 2352:1 2375:1 2384:1 2665:1 2814:1 2827:1 2842:1 2862:1 2884:1 2895:2 2898:2 2906:1 2919:2 2927:1 2948:1 2975:2 2984:1 3007:1 3028:1 3037:1 3052:1 3165:1 3184:1 3192:1 3195:1 3215:2 3231:1 3232:1 3282:1 3295:1 3315:1 3330:1 3332:1 3358:1 3465:2 3471:2 3501:1 3546:1 3591:1 3665:1 3703:1 3761:1 3810:2 3815:1 3898:2 3903:1 3940:1 4002:1 4082:1 4094:1 4177:1 4215:1 4256:1 4303:1 4367:1 4387:1 4398:1 4450:1 4477:1 4488:1 4567:1 4578:1 4592:1 4593:1 4665:1 4682:1 4729:1 4755:1 4765:1 4869:1 4870:1 4895:1 4898:4 4919:1 4925:1 5002:2 5072:1 5102:2 5177:1 5215:3 5247:1 5260:1 5270:1 5292:1 5348:2 5392:1 5427:1 5430:1 5501:2 5540:1 5541:1 5563:1 5585:1 5601:1 5638:1 5644:3 5665:1 5822:1 5840:1 5852:1 5869:2 5980:1 6001:2 6131:1 6226:1 6230:1 6292:2 6295:1 6358:1 6444:1 6506:1 6510:1 6522:1 6574:1 #algo
-0.00056713324710884569380270336935723 1:7 2:5 3:1 14:2 18:1 22:1 23:4 38:1 51:1 52:1 66:1 91:1 94:2 121:1 147:1 152:1 160:1 164:7 168:1 171:1 176:1 180:1 200:2 216:1 219:1 228:1 238:1 244:1 248:1 270:1 318:1 332:1 337:1 393:2 406:1 415:1 424:1 433:1 449:2 457:1 458:1 467:4 469:1 472:1 473:1 505:6 508:1 509:1 515:1 523:1 528:1 538:1 541:1 542:1 546:1 559:1 576:3 584:1 603:1 606:1 614:1 665:1 673:2 675:1 678:2 680:5 689:1 703:2 725:1 761:1 785:1 786:1 793:1 797:1 798:1 815:1 853:3 862:2 864:1 870:1 880:1 883:1 893:1 895:6 898:25 904:1 919:3 921:1 927:1 931:1 938:1 942:2 944:1 945:2 948:2 949:1 950:2 952:2 963:1 966:1 975:5 983:1 985:2 986:2 988:1 1002:4 1004:1 1012:1 1033:1 1036:1 1048:1 1063:7 1096:1 1152:2 1156:1 1165:2 1171:1 1197:1 1215:1 1234:1 1242:6 1247:1 1260:5 1263:1 1264:1 1265:1 1310:3 1325:1 1336:1 1337:1 1344:2 1365:1 1369:1 1381:1 1385:1 1397:1 1424:3 1426:1 1450:1 1458:1 1459:1 1463:1 1471:1 1509:1 1513:4 1519:1 1543:1 1549:1 1558:1 1560:2 1565:4 1572:1 1577:2 1584:1 1591:1 1595:5 1601:2 1604:1 1606:1 1610:1 1612:2 1619:2 1626:1 1640:1 1642:2 1644:8 1660:2 1665:1 1667:7 1702:4 1715:1 1748:2 1763:1 1764:2 1766:2 1767:1 1788:1 1789:1 1797:1 1820:1 1822:2 1848:2 1849:1 1850:1 1862:1 1869:11 1872:1 1895:2 1898:7 1903:3 1913:1 1927:2 1937:1 1948:1 1975:3 1983:1 1985:1 2001:7 2002:4 2014:2 2021:2 2022:1 2052:3 2064:2 2073:2 2094:1 2095:1 2108:1 2123:1 2128:1 2133:1 2134:1 2135:2 2152:1 2174:1 2216:1 2217:2 2253:1 2271:1 2278:1 2296:1 2337:1 2365:1 2381:2 2400:5 2416:1 2422:1 2436:1 2438:1 2453:1 2459:2 2478:1 2488:1 2508:2 2513:1 2527:2 2537:1 2555:3 2560:3 2591:1 2630:2 2665:1 2675:1 2700:1 2715:1 2754:1 2768:1 2770:2 2779:1 2785:1 2804:1 2814:1 2855:4 2862:4 2869:1 2884:1 2895:5 2898:5 2903:1 2906:2 2919:18 2938:1 2939:2 2945:2 2948:2 2950:1 2975:1 2980:1 3002:1 3004:2 3016:2 3031:1 3063:2 3087:1 3097:1 3106:1 3153:1 3154:1 3163:1 3207:1 3218:1 3219:1 3254:1 3259:1 3264:1 3278:1 3311:3 3314:1 3315:1 3369:1 3371:2 3375:1 3378:1 3454:1 3463:2 3465:2 3467:1 3474:3 3488:1 3495:1 3506:1 3530:1 3567:1 3570:1 3578:1 3579:1 3581:1 3591:1 3639:2 3647:1 3665:1 3692:1 3696:1 3762:9 3763:6 3764:4 3808:1 3850:1 3855:1 3866:7 3881:1 3898:1 3932:2 3983:1 3996:1 4002:1 4019:1 4023:2 4033:1 4094:1 4126:1 4153:1 4158:3 4160:1 4184:4 4198:1 4265:1 4269:1 4280:1 4376:1 4381:1 4394:1 4406:4 4408:1 4413:1 4442:1 4467:1 4468:1 4493:1 4541:1 4543:2 4594:1 4602:1 4611:1 4635:1 4665:1 4684:1 4742:1 4786:1 4819:1 4822:1 4831:3 4834:1 4835:1 4861:2 4862:1 4876:1 4895:13 4898:45 4903:3 4906:1 4919:1 4925:2 4927:2 4939:1 4945:5 4950:1 4951:1 4959:1 4967:1 5002:10 5013:1 5014:1 5021:2 5035:1 5106:1 5119:1 5120:2 5128:1 5159:1 5163:2 5201:1 5215:15 5223:1 5224:1 5236:1 5253:1 5260:1 5264:1 5269:1 5295:1 5298:1 5333:1 5343:1 5388:2 5394:1 5397:1 5428:1 5460:1 5463:3 5471:1 5488:2 5492:1 5495:1 5496:1 5501:2 5508:2 5512:1 5513:16 5541:2 5577:1 5578:1 5580:2 5581:1 5612:1 5627:2 5629:1 5639:3 5644:2 5651:1 5665:1 5786:1 5810:2 5906:1 6002:1 6055:1 6063:1 6090:1 6193:1 6215:1 6242:1 6247:1 6292:1 6295:1 6448:7 6576:1 6586:1 6638:1 #algo
0.015429370483187654361501017774572 13:1 47:1 215:1 240:1 277:1 332:1 514:1 639:2 665:1 717:1 770:1 796:1 801:1 822:1 948:1 975:1 1014:1 1051:1 1078:1 1126:1 1202:1 1215:1 1242:1 1332:1 1384:1 1402:1 1420:1 1427:1 1690:1 1786:1 1801:1 2001:1 2014:2 2124:1 2215:1 2242:2 2243:1 2292:1 2341:1 2342:1 2356:1 2381:1 2392:1 2420:1 2513:1 2644:2 2665:1 2682:1 2687:1 2763:1 2766:1 2811:1 2895:2 2919:1 2984:1 3002:2 3004:2 3142:1 3163:1 3181:1 3215:1 3264:1 3342:1 3376:1 3420:1 3501:2 3516:1 3639:4 3644:1 3665:1 3766:1 3810:1 3824:1 3975:1 4014:1 4021:1 4033:1 4544:1 4639:2 4869:1 4893:1 5002:2 5254:1 5388:1 5395:1 5501:1 5509:1 5541:1 5542:1 5591:1 5612:1 5639:2 5841:1 5852:1 5861:1 5862:1 5869:1 5912:1 5975:1 5984:1 6002:1 6015:1 6152:1 6214:1 6215:1 6232:1 6253:1 6384:1 6463:1 6545:1 6639:2 #algo
0.0027926578722843476559889452914831 1:3 14:1 62:1 74:1 99:1 156:1 163:1 168:1 202:1 215:1 230:1 257:1 292:2 330:2 356:2 387:1 436:1 459:1 463:1 574:1 579:1 602:4 628:2 638:2 639:1 640:1 641:1 673:2 687:2 700:1 701:1 726:1 792:1 793:1 810:1 822:1 852:1 862:1 868:1 919:3 942:1 975:1 1001:2 1056:1 1059:1 1074:1 1101:1 1106:1 1152:1 1215:2 1242:4 1269:1 1384:2 1440:1 1492:1 1549:1 1566:1 1574:1 1612:3 1619:1 1620:1 1632:1 1660:1 1689:1 1703:1 1705:1 1707:1 1733:1 1766:1 1809:1 1822:3 1852:1 1869:5 1898:1 1912:1 1948:1 1975:1 2001:1 2008:3 2014:12 2016:1 2094:1 2121:4 2123:1 2150:1 2152:3 2215:1 2226:1 2237:1 2242:1 2258:2 2292:3 2311:1 2315:1 2319:1 2325:1 2328:1 2340:1 2343:1 2344:1 2355:1 2381:1 2399:1 2405:1 2406:1 2422:1 2436:1 2465:1 2503:1 2523:1 2524:1 2534:5 2571:1 2591:1 2594:1 2617:1 2639:2 2640:1 2641:2 2644:1 2660:1 2687:1 2754:1 2770:1 2793:1 2795:2 2822:1 2842:1 2862:1 2869:1 2895:1 2898:2 2919:3 2948:3 2975:1 2984:1 2994:1 3002:2 3004:1 3014:2 3022:1 3031:1 3033:2 3089:1 3100:1 3137:1 3152:2 3174:1 3194:1 3236:1 3237:1 3264:2 3300:2 3302:2 3330:1 3348:1 3358:1 3359:1 3381:1 3426:6 3436:1 3438:1 3453:1 3455:1 3480:1 3488:1 3514:1 3541:1 3575:1 3584:1 3591:4 3594:1 3619:3 3620:1 3632:1 3665:3 3689:2 3702:1 3754:1 3775:2 3793:1 3810:2 3869:3 3919:1 3948:3 4001:1 4014:1 4094:1 4152:1 4153:1 4154:1 4163:1 4172:1 4215:1 4227:1 4282:1 4292:2 4318:1 4349:1 4355:2 4358:1 4385:1 4390:1 4402:1 4436:1 4438:1 4501:1 4518:1 4533:2 4535:1 4575:1 4577:1 4599:1 4612:1 4616:1 4682:1 4691:1 4705:2 4731:1 4774:1 4786:1 4808:1 4819:1 4822:1 4895:3 4898:12 4903:2 4906:5 4911:1 4912:3 4926:1 4927:9 4948:2 4975:1 4994:1 5002:8 5009:1 5215:1 5242:1 5292:1 5301:1 5302:4 5315:1 5328:1 5351:1 5365:1 5384:1 5390:1 5400:3 5422:2 5424:1 5463:2 5465:1 5471:2 5488:1 5533:1 5541:5 5549:1 5576:1 5591:1 5639:9 5644:1 5654:2 5665:1 5690:1 5745:1 5753:1 5761:1 5876:1 5889:1 6014:1 6230:1 6242:1 6265:1 6292:1 6302:1 6315:1 6328:1 6355:1 6388:1 6396:1 6400:1 6418:1 6463:1 6484:1 6578:1 6615:1 6616:1 6639:1 #algo
-0.024182417722037431034864951584495 2:1 140:1 146:1 265:1 280:1 501:1 541:1 555:2 590:1 591:1 644:1 665:1 810:1 841:1 895:1 922:1 1292:1 1577:1 1644:1 1681:1 1895:1 2644:1 2687:1 3200:1 3292:2 3810:1 4723:1 5157:1 5184:1 5686:1 5700:1 6002:1 6200:1 6400:1 6644:1 #algo
-0.0014405081207051998078150223392413 1:7 2:4 14:2 21:2 22:1 52:3 64:2 73:2 94:1 95:1 108:1 123:1 128:1 133:1 134:1 135:2 152:1 174:1 216:1 217:2 253:1 271:1 278:1 296:1 337:1 365:1 381:2 400:5 416:1 422:1 436:1 438:1 453:1 459:2 478:1 488:1 508:2 513:1 527:2 537:1 555:3 560:3 591:1 630:2 665:1 675:1 700:1 715:1 754:1 768:1 770:2 779:1 785:1 804:1 814:1 855:4 862:4 869:1 884:1 895:5 898:5 903:1 906:2 919:18 938:1 939:2 945:2 948:2 950:1 975:1 980:1 1002:1 1004:2 1016:2 1031:1 1063:2 1087:1 1097:1 1106:1 1153:1 1154:1 1163:1 1207:1 1218:1 1219:1 1254:1 1259:1 1264:1 1278:1 1311:3 1314:1 1315:1 1369:1 1371:2 1375:1 1378:1 1454:1 1463:2 1465:2 1467:1 1474:3 1488:1 1495:1 1506:1 1530:1 1567:1 1570:1 1578:1 1579:1 1581:1 1591:1 1639:2 1647:1 1665:1 1692:1 1696:1 1762:9 1763:6 1764:4 1808:1 1850:1 1855:1 1866:7 1881:1 1898:1 1932:2 1983:1 1996:1 2002:1 2019:1 2023:2 2033:1 2094:1 2126:1 2153:1 2158:3 2160:1 2184:4 2198:1 2265:1 2269:1 2280:1 2376:1 2381:1 2394:1 2406:4 2408:1 2413:1 2442:1 2467:1 2468:1 2493:1 2541:1 2543:2 2594:1 2602:1 2611:1 2635:1 2665:1 2684:1 2742:1 2786:1 2819:1 2822:1 2831:3 2834:1 2835:1 2861:2 2862:1 2876:1 2895:13 2898:45 2903:3 2906:1 2919:1 2925:2 2927:2 2939:1 2945:5 2950:1 2951:1 2959:1 2967:1 3002:10 3013:1 3014:1 3021:2 3035:1 3106:1 3119:1 3120:2 3128:1 3159:1 3163:2 3201:1 3215:15 3223:1 3224:1 3236:1 3253:1 3260:1 3264:1 3269:1 3295:1 3298:1 3333:1 3343:1 3388:2 3394:1 3397:1 3428:1 3460:1 3463:3 3471:1 3488:2 3492:1 3495:1 3496:1 3501:2 3508:2 3512:1 3513:16 3541:2 3577:1 3578:1 3580:2 3581:1 3612:1 3627:2 3629:1 3639:3 3644:2 3651:1 3665:1 3786:1 3810:2 3906:1 4002:1 4055:1 4063:1 4090:1 4193:1 4215:1 4242:1 4247:1 4292:1 4295:1 4448:7 4576:1 4586:1 4638:1 4720:2 4721:2 4898:1 4919:1 4942:1 5001:1 5072:1 5095:1 5128:1 5152:1 5163:1 5212:1 5215:2 5232:1 5242:1 5252:2 5295:3 5357:1 5358:1 5400:1 5405:1 5420:1 5424:5 5426:2 5430:1 5440:1 5458:1 5501:3 5508:1 5584:2 5585:1 5603:1 5609:3 5612:2 5619:5 5636:1 5638:2 5665:1 5692:5 5702:2 5766:1 5810:1 5822:9 5824:1 5869:4 5975:1 6001:6 6014:2 6036:1 6079:1 6103:1 6145:1 6152:2 6155:1 6167:1 6169:1 6197:1 6215:7 6233:1 6258:2 6292:1 6295:3 6319:1 6320:2 6323:2 6332:1 6342:1 6358:1 6365:6 6381:1 6416:1 6505:2 6539:2 6566:1 6611:1 6612:1 6630:1 6651:1 6663:1 #algo
-0.0060297608890637855935668021345464 141:1 149:1 242:1 431:1 562:1 775:1 923:1 948:1 955:1 1000:1 1001:1 1002:1 1014:2 1094:1 1163:1 1178:1 1208:1 1215:6 1237:1 1242:1 1247:2 1342:1 1350:1 1351:1 1384:2 1451:1 1467:1 1499:1 1500:1 1501:1 1508:1 1520:1 1539:1 1569:1 1601:1 1612:1 1619:2 1620:1 1656:1 1672:1 1674:1 1680:1 1686:1 1745:1 1766:1 1812:1 1852:6 1869:3 1894:1 1895:1 1898:1 1924:1 1950:1 1975:2 2001:3 2014:1 2062:1 2074:1 2099:1 2156:1 2163:1 2168:1 2202:1 2215:1 2230:1 2257:1 2292:2 2330:2 2356:2 2387:1 2436:1 2459:1 2463:1 2574:1 2579:1 2602:4 2628:2 2638:2 2639:1 2640:1 2641:1 2673:2 2687:2 2700:1 2701:1 2726:1 2792:1 2793:1 2810:1 2822:1 2852:1 2862:1 2868:1 2919:3 2942:1 2975:1 3001:2 3056:1 3059:1 3074:1 3101:1 3106:1 3152:1 3215:2 3242:4 3269:1 3384:2 3440:1 3492:1 3549:1 3566:1 3574:1 3612:3 3619:1 3620:1 3632:1 3660:1 3689:1 3703:1 3705:1 3707:1 3733:1 3766:1 3809:1 3822:3 3852:1 3869:5 3898:1 3912:1 3948:1 3975:1 4001:1 4008:3 4014:12 4016:1 4094:1 4121:4 4123:1 4150:1 4152:3 4215:1 4226:1 4237:1 4242:1 4258:2 4292:3 4311:1 4315:1 4319:1 4325:1 4328:1 4340:1 4343:1 4344:1 4355:1 4381:1 4399:1 4405:1 4406:1 4422:1 4436:1 4465:1 4503:1 4523:1 4524:1 4534:5 4571:1 4591:1 4594:1 4617:1 4639:2 4640:1 4641:2 4644:1 4660:1 4687:1 4754:1 4770:1 4793:1 4795:2 4822:1 4842:1 4862:1 4869:1 4895:1 4898:2 4919:3 4948:3 4975:1 4984:1 4994:1 5002:2 5004:1 5014:2 5022:1 5031:1 5033:2 5089:1 5100:1 5137:1 5152:2 5174:1 5194:1 5236:1 5237:1 5264:2 5300:2 5302:2 5330:1 5348:1 5358:1 5359:1 5381:1 5426:6 5436:1 5438:1 5453:1 5455:1 5480:1 5488:1 5514:1 5541:1 5575:1 5584:1 5591:4 5594:1 5619:3 5620:1 5632:1 5665:3 5689:2 5702:1 5754:1 5775:2 5793:1 5810:2 5869:3 5919:1 5948:3 6001:1 6014:1 6094:1 6152:1 6153:1 6154:1 6163:1 6172:1 6215:1 6227:1 6282:1 6292:2 6318:1 6349:1 6355:2 6358:1 6385:1 6390:1 6402:1 6436:1 6438:1 6501:1 6518:1 6533:2 6535:1 6575:1 6577:1 6599:1 6612:1 6616:1 #algo
-0.0035427651437147543098116209137061 1:1 2:2 14:2 31:1 43:1 49:1 117:1 126:1 163:1 170:1 215:3 242:2 264:1 269:1 295:3 317:1 319:1 323:1 339:1 392:1 455:1 505:2 506:1 519:1 539:1 571:2 599:1 614:1 638:2 665:1 668:1 669:1 699:1 726:1 750:1 775:1 779:1 793:1 810:6 822:1 842:1 895:1 898:2 927:1 950:1 975:2 1000:3 1002:1 1014:4 1076:1 1112:1 1148:1 1183:1 1215:1 1231:1 1292:2 1297:1 1383:1 1398:1 1439:2 1463:1 1472:2 1488:2 1523:1 1545:1 1639:1 1665:1 1687:1 1730:1 1754:1 1781:4 1795:1 1819:2 1820:1 1822:1 1862:2 1869:1 1898:2 1919:2 1948:1 1949:2 2000:3 2002:3 2013:1 2014:1 2031:1 2034:1 2036:3 2076:1 2116:2 2152:1 2163:1 2170:1 2172:1 2178:1 2183:1 2185:1 2187:1 2208:10 2211:1 2215:9 2236:1 2237:1 2242:1 2256:1 2292:1 2295:9 2323:2 2328:1 2343:1 2344:1 2358:1 2390:1 2424:1 2431:1 2436:1 2440:1 2450:1 2458:3 2461:1 2513:1 2514:1 2519:2 2554:1 2571:1 2582:1 2591:2 2612:1 2639:5 2644:2 2660:1 2665:1 2683:1 2688:1 2712:1 2740:1 2766:1 2778:1 2780:1 2806:3 2810:3 2820:2 2822:1 2824:2 2852:3 2855:1 2864:1 2869:5 2898:2 2901:1 2927:1 2933:2 2942:1 2950:1 3000:1 3001:2 3002:1 3014:8 3033:1 3034:1 3036:1 3152:2 3158:1 3159:1 3170:1 3194:1 3208:1 3215:6 3247:1 3248:1 3258:1 3275:1 3282:1 3284:3 3292:4 3295:4 3299:1 3300:2 3356:1 3361:3 3406:1 3408:1 3415:1 3436:1 3471:1 3502:1 3513:2 3532:1 3604:2 3639:1 3665:1 3673:2 3686:1 3692:1 3713:1 3715:1 3758:1 3779:1 3781:3 3783:1 3806:2 3810:1 3819:3 3820:1 3842:1 3852:2 3860:2 3862:3 3867:1 3894:1 3895:1 3897:1 3898:2 3902:2 3906:1 3919:6 3929:1 3930:2 3931:1 3932:1 3964:2 3974:1 3975:4 4031:1 4070:2 4076:1 4087:1 4091:1 4142:1 4167:1 4194:1 4215:2 4235:1 4242:15 4275:1 4281:1 4295:1 4299:2 4305:4 4322:3 4324:1 4333:1 4343:1 4351:1 4418:1 4424:1 4425:1 4440:2 4501:1 4526:1 4556:1 4573:1 4612:2 4616:1 4625:2 4639:3 4665:1 4673:2 4675:2 4686:1 4693:1 4716:2 4726:1 4734:5 4767:1 4779:1 4806:2 4822:1 4830:1 4855:1 4869:9 4874:1 4884:1 4897:3 4898:1 4903:1 4927:2 4932:1 4933:1 4947:2 4968:4 4983:2 4984:1 4985:1 5001:18 5006:1 5007:3 5008:1 5012:1 5014:3 5021:1 5051:1 5090:1 5092:2 5123:1 5134:1 5147:3 5148:1 5149:1 5158:5 5170:1 5178:1 5194:1 5196:4 5197:3 5199:2 5215:1 5242:1 5254:1 5295:1 5305:1 5322:2 5323:1 5333:1 5355:1 5371:1 5386:1 5402:1 5403:3 5404:1 5426:1 5443:1 5460:1 5470:1 5472:1 5501:1 5513:1 5541:1 5555:1 5569:1 5577:1 5610:1 5612:4 5629:2 5639:1 5665:1 5673:1 5675:5 5687:1 5700:1 5740:1 5750:1 5762:3 5806:2 5810:2 5822:4 5842:2 5862:5 5865:1 5869:2 5887:1 5895:7 5898:5 5903:1 5906:1 5919:17 5925:1 5926:2 5929:21 5937:1 5948:1 5950:2 5954:2 5975:2 6002:3 6006:1 6016:1 6034:1 6044:1 6087:2 6092:1 6094:2 6152:6 6199:1 6226:1 6258:1 6263:3 6302:1 6315:2 6329:1 6330:1 6332:1 6333:1 6357:1 6471:1 6482:1 6492:1 6505:1 6509:2 6513:1 6538:1 6541:1 6580:4 6581:3 6589:1 6622:1 6633:1 6639:5 #algo
-0.0092985594979380532809631887403157 2:1 12:3 14:1 120:1 135:1 145:1 163:1 171:1 174:1 178:1 179:1 208:1 215:7 221:1 242:1 294:1 295:2 323:4 332:2 358:2 416:1 420:1 427:1 442:1 528:1 532:1 551:1 567:1 569:3 570:3 591:1 597:1 666:1 673:1 702:1 736:1 737:1 749:1 754:1 760:2 810:4 841:1 852:1 941:1 942:1 961:1 963:1 1001:1 1013:1 1014:1 1035:3 1042:1 1045:1 1106:1 1112:1 1146:1 1187:1 1208:1 1215:4 1242:1 1293:1 1296:1 1305:1 1328:1 1442:1 1444:1 1501:1 1509:1 1533:1 1540:1 1548:1 1551:1 1579:1 1584:1 1593:1 1605:1 1619:3 1673:1 1680:1 1682:1 1700:1 1702:1 1714:1 1731:1 1786:1 1801:1 1810:1 1822:1 1852:1 1869:1 1898:7 1906:6 1919:1 1927:1 1937:1 1939:2 1945:1 1947:1 1948:1 1950:1 1986:2 2002:4 2004:1 2014:2 2038:1 2043:1 2094:1 2104:3 2121:1 2123:1 2127:1 2152:1 2184:1 2215:4 2233:1 2234:1 2236:1 2242:2 2264:1 2265:1 2292:1 2320:1 2329:1 2365:1 2384:2 2403:1 2420:1 2424:2 2440:1 2442:1 2443:1 2471:1 2472:1 2478:1 2501:2 2505:1 2532:1 2543:1 2549:1 2568:1 2577:1 2584:1 2586:1 2601:1 2603:1 2612:1 2627:1 2635:1 2638:1 2639:7 2660:2 2661:1 2663:1 2665:1 2680:1 2703:1 2739:1 2810:3 2822:2 2869:1 2877:2 2919:5 2994:1 3001:1 3014:7 3049:1 3052:1 3053:1 3080:1 3082:1 3109:1 3215:2 3253:1 3258:1 3330:1 3332:1 3358:3 3373:1 3400:1 3420:1 3436:1 3440:1 3442:1 3471:1 3492:1 3514:2 3523:1 3541:1 3570:1 3612:1 3619:1 3621:1 3638:1 3665:1 3673:2 3692:1 3730:1 3750:1 3754:1 3767:1 3788:1 3801:1 3822:1 3862:2 3869:2 3877:1 3884:2 3898:3 3906:1 3919:1 3927:1 3945:1 3947:1 3950:1 3996:1 4002:5 4004:1 4016:3 4021:1 4034:1 4052:1 4079:2 4136:1 4152:2 4215:2 4233:1 4281:2 4282:1 4296:1 4315:1 4347:1 4381:1 4402:1 4412:1 4424:1 4430:1 4471:1 4489:1 4501:1 4528:1 4547:1 4628:1 4638:1 4660:1 4665:1 4692:3 4747:1 4750:1 4754:1 4799:1 4810:1 4822:2 4869:1 4895:1 4898:6 4919:1 4921:1 4937:1 4942:1 4945:1 4948:2 4950:2 5002:7 5011:1 5014:2 5019:1 5087:1 5103:2 5145:1 5152:1 5208:1 5236:1 5254:1 5258:1 5284:1 5292:1 5381:2 5385:1 5400:2 5402:1 5424:1 5436:1 5447:1 5448:1 5471:1 5534:2 5541:2 5570:1 5591:1 5603:1 5614:1 5620:1 5627:1 5638:1 5639:7 5640:1 5644:1 5665:1 5674:1 5690:1 5731:2 5786:2 5790:1 5810:1 5822:1 5824:2 5852:1 5862:2 5870:1 5877:1 5895:3 5898:5 5902:1 5919:1 5921:1 5945:2 5950:1 5958:1 5984:1 6002:8 6004:1 6014:1 6031:2 6055:1 6140:1 6180:1 6215:3 6232:1 6247:1 6264:1 6265:1 6315:1 6383:1 6384:2 6391:1 6426:1 6463:1 6513:2 6514:1 6541:1 6549:1 6557:1 6573:1 6581:1 6612:1 6619:1 6639:10 6644:1 6647:1 #algo
0.0028173773276232209027136743628716 2:6 14:1 24:1 68:1 103:1 104:1 105:1 144:2 145:1 171:1 172:1 173:1 264:1 286:1 296:1 309:1 311:1 315:1 376:3 377:5 378:2 380:1 381:1 384:2 385:1 400:1 410:1 416:1 420:1 457:1 463:1 471:1 472:2 541:1 549:1 555:1 561:2 598:1 603:1 612:2 619:3 620:1 639:3 653:2 665:1 673:1 692:6 702:1 703:1 726:1 745:2 786:2 790:1 793:1 822:2 893:2 895:5 896:1 898:16 906:2 912:1 919:1 925:2 927:2 938:2 939:1 945:3 960:1 962:2 963:1 984:1 1002:11 1014:1 1021:1 1023:1 1040:1 1094:2 1095:1 1151:1 1184:2 1236:2 1258:2 1262:1 1281:2 1292:1 1355:2 1358:1 1381:1 1384:1 1385:1 1400:1 1422:1 1428:1 1445:1 1454:1 1457:2 1488:1 1523:1 1541:3 1546:1 1591:1 1600:1 1607:1 1612:1 1619:2 1639:8 1644:1 1647:1 1665:1 1692:2 1730:1 1754:2 1786:1 1793:1 1822:2 1824:2 1895:1 1898:1 1912:1 1919:1 1948:2 1958:1 1975:4 1981:1 1984:1 2002:2 2004:1 2014:1 2103:1 2152:1 2163:1 2178:1 2236:1 2258:1 2292:1 2324:1 2358:1 2386:1 2422:1 2423:1 2426:1 2453:2 2519:1 2536:1 2546:1 2639:1 2644:1 2665:1 2810:1 2845:1 2852:1 2948:1 2996:1 3007:1 3133:1 3215:1 3254:1 3355:1 3358:1 3529:1 3577:1 3619:1 3660:1 3665:1 3679:1 3692:1 3790:1 3810:1 3862:1 3895:3 3898:2 3925:1 3938:1 3939:1 3960:1 4002:2 4022:1 4031:1 4061:1 4242:1 4258:1 4315:1 4343:1 4382:1 4384:1 4400:2 4409:1 4440:1 4471:1 4533:1 4541:4 4590:1 4591:1 4596:1 4612:2 4619:3 4639:6 4644:1 4665:1 4692:1 4804:1 4822:1 4893:1 4895:1 5002:1 5068:1 5094:1 5114:1 5148:1 5215:1 5258:1 5296:1 5305:1 5332:1 5384:1 5414:1 5457:1 5471:1 5523:1 5539:1 5612:1 5665:1 5687:1 5801:1 5822:1 5919:1 5958:1 6061:1 6187:1 6208:1 6247:1 6248:1 6323:1 6358:1 6536:1 6585:3 6603:1 #algo
0.0070954103788905178301638088100844 2:4 22:1 31:1 39:2 94:2 136:1 146:1 184:5 228:1 315:1 355:1 372:1 382:1 400:1 414:1 433:1 454:1 533:1 539:1 541:1 543:1 573:1 621:1 639:7 644:3 704:1 739:1 792:1 793:1 824:1 863:1 895:4 898:5 912:2 919:3 938:1 939:1 945:1 950:1 979:1 984:2 1002:13 1031:2 1051:1 1081:1 1145:1 1215:2 1236:1 1246:1 1315:1 1332:1 1384:2 1386:1 1412:1 1420:1 1426:1 1457:1 1463:6 1471:2 1488:1 1497:1 1513:1 1533:1 1541:4 1578:1 1591:1 1606:1 1613:1 1621:1 1629:1 1639:26 1644:8 1665:1 1731:1 1799:2 1879:1 1898:4 2002:3 2009:1 2014:1 2038:2 2094:1 2119:1 2142:1 2215:4 2270:1 2276:1 2304:1 2639:1 2644:2 2665:1 2852:1 2898:1 2953:1 3001:1 3004:1 3215:1 3275:1 3279:1 3584:1 3591:1 3665:1 3842:1 3886:4 3887:1 3939:1 3953:1 4081:1 4142:1 4175:2 4215:2 4332:1 4373:1 4435:1 4438:1 4639:1 4809:1 4869:3 4898:1 4919:1 4975:1 5009:1 5094:1 5119:1 5152:1 5163:1 5215:4 5255:1 5276:1 5304:1 5320:1 5657:1 5665:1 5721:1 5807:1 5852:1 5919:1 5975:1 6152:1 6176:1 6215:1 6275:1 6375:1 6520:1 6584:1 6622:1 6651:1 #algo
0.010894367014549566699543881043155 2:1 104:1 123:1 134:1 152:1 170:1 180:1 256:1 275:1 294:1 414:1 504:1 509:1 519:1 612:1 619:3 639:1 660:1 665:1 693:1 731:1 800:2 814:2 822:2 824:1 869:1 895:1 896:1 898:2 912:1 940:1 956:1 961:1 962:1 1001:3 1002:4 1013:2 1014:3 1084:1 1094:1 1128:1 1146:1 1148:1 1215:5 1216:1 1265:1 1292:1 1303:1 1304:1 1371:2 1384:1 1415:1 1427:1 1433:1 1459:1 1463:2 1474:1 1513:3 1539:2 1570:1 1603:1 1619:3 1639:6 1644:1 1665:1 1749:1 1810:1 1822:1 1824:1 1861:1 1862:3 1895:1 1898:1 1919:2 1948:1 1975:1 1994:1 2002:2 2004:3 2014:2 2072:1 2152:1 2214:1 2215:2 2248:1 2282:1 2293:1 2321:1 2349:2 2358:1 2382:1 2398:1 2400:1 2427:3 2437:1 2574:3 2651:1 2665:1 2672:1 2757:1 2763:1 2764:1 2810:1 2825:1 2828:1 2829:1 2840:2 2861:1 2862:1 2908:1 2994:1 3013:1 3016:1 3021:1 3068:2 3076:1 3112:1 3126:2 3152:1 3163:1 3168:1 3172:1 3180:1 3215:3 3232:1 3242:2 3249:1 3252:1 3295:1 3319:1 3332:1 3352:1 3355:1 3381:1 3384:2 3409:1 3411:1 3420:1 3434:1 3443:1 3465:1 3470:2 3501:1 3539:1 3549:1 3559:1 3566:1 3612:1 3619:9 3665:1 3686:1 3692:3 3702:2 3724:1 3731:1 3744:1 3786:2 3792:1 3810:1 3822:3 3852:1 3895:2 3898:5 3899:2 3906:1 3919:3 3927:1 3945:1 4002:5 4014:4 4094:1 4146:1 4258:1 4259:1 4266:1 4292:2 4382:1 4397:1 4400:2 4420:2 4424:1 4437:1 4450:1 4463:3 4474:2 4497:1 4541:2 4549:1 4560:1 4591:1 4612:1 4613:1 4619:7 4639:11 4644:1 4665:1 4666:1 4673:2 4674:1 4691:1 4692:1 4715:1 4728:1 4822:1 4862:1 4898:1 4948:1 5002:1 5004:2 5021:1 5146:1 5215:1 5228:1 5229:1 5238:2 5281:1 5290:1 5295:1 5307:1 5319:1 5358:1 5382:1 5384:4 5399:1 5420:1 5434:1 5437:1 5479:1 5482:1 5490:1 5501:1 5502:1 5587:1 5601:1 5612:1 5619:3 5665:2 5692:2 5702:1 5713:1 5809:2 5810:1 5852:1 5869:7 5904:1 5983:1 5984:1 6001:2 6002:1 6014:1 6038:1 6152:1 6163:1 6215:2 6258:1 6332:1 6381:1 6383:2 6416:1 6436:1 6443:1 6449:1 6477:1 6479:1 6490:1 6518:1 6533:3 6614:1 #algo
0.0091557815618381853395302272247136 1:1 2:1 4:1 14:1 50:1 127:1 242:2 275:1 281:1 344:1 388:1 440:1 461:1 501:1 531:1 549:2 569:1 590:2 612:1 639:1 644:1 665:1 793:1 814:1 819:1 822:1 852:1 869:2 898:1 940:1 950:1 984:1 1001:7 1002:2 1014:5 1250:1 1295:1 1356:1 1357:1 1362:1 1373:1 1459:1 1513:1 1514:1 1523:1 1531:2 1536:1 1606:1 1610:1 1639:2 1644:2 1665:1 1675:5 1700:1 1730:1 1735:1 1750:2 1756:1 1786:1 1801:3 1809:1 1822:1 1824:1 1842:1 1862:1 1869:1 1898:2 1919:7 1926:1 1948:4 1950:1 1975:2 1994:1 2002:2 2016:1 2031:1 2082:1 2087:1 2092:1 2124:1 2129:1 2152:1 2238:1 2330:1 2359:1 2381:1 2424:1 2454:1 2475:1 2476:1 2485:1 2510:1 2533:1 2555:1 2607:2 2616:1 2660:1 2665:1 2760:1 2775:1 2794:1 2861:1 2895:1 2896:1 2903:1 2919:1 2942:1 2983:1 3001:1 3014:1 3016:1 3108:1 3113:1 3163:1 3236:1 3238:1 3241:1 3328:2 3355:2 3383:1 3454:1 3461:2 3513:1 3533:1 3534:1 3644:1 3786:1 3788:1 3792:1 3797:1 3870:1 3895:8 3898:7 3903:2 3906:1 3912:1 3927:6 3951:1 3956:1 3975:1 3986:1 4002:6 4068:1 4118:1 4236:1 4248:1 4356:1 4404:1 4421:1 4422:2 4424:1 4465:1 4488:1 4513:1 4541:1 4546:2 4639:4 4644:1 4665:1 4912:1 5011:1 5163:1 5187:1 5215:2 5306:1 5355:1 5414:1 5501:1 5541:1 5665:1 5743:1 5824:1 5828:1 5852:2 6002:1 6080:1 6143:1 6163:1 6178:1 6215:1 6234:1 6247:1 6315:1 6358:1 6465:1 6519:1 6584:2 6630:1 #algo
-0.0098196121961024989549526864607287 1:1 2:1 14:1 68:1 86:1 134:1 170:2 171:1 193:1 242:1 305:3 355:1 384:1 473:1 564:1 568:1 619:2 644:1 660:2 665:1 692:1 693:1 702:5 703:1 716:1 771:1 786:1 822:3 824:1 852:1 869:1 895:1 919:1 927:1 950:1 999:2 1001:7 1002:1 1014:2 1086:1 1162:1 1215:4 1236:1 1242:1 1265:1 1292:1 1295:2 1301:1 1331:1 1358:1 1381:2 1384:1 1438:1 1439:1 1471:1 1513:2 1514:2 1612:1 1639:4 1730:1 1760:1 1802:1 1813:1 1852:1 1867:1 1869:1 1919:3 1948:1 1954:1 1963:1 1994:1 2014:1 2031:1 2046:1 2079:1 2086:2 2092:3 2215:2 2248:1 2275:1 2320:1 2330:1 2416:1 2453:2 2536:1 2649:1 2699:1 2703:1 2704:1 2740:1 2766:1 2828:1 2880:1 2898:3 2919:1 2926:1 2958:2 3002:1 3004:1 3015:2 3036:2 3037:1 3042:1 3101:1 3215:1 3236:2 3242:1 3248:1 3301:1 3303:1 3330:1 3371:1 3400:1 3412:1 3433:1 3665:1 3687:1 3700:1 3703:1 3801:1 3822:2 3833:1 3869:2 3895:3 3898:10 3903:1 3912:1 3919:1 3925:1 3939:1 3940:2 3945:1 3948:1 3950:1 3969:2 3996:1 4002:7 4009:1 4261:2 4274:1 4292:1 4305:1 4358:1 4387:2 4420:1 4463:1 4513:1 4565:2 4665:1 4715:1 4804:1 4869:1 4898:3 4938:1 4945:1 4948:7 4958:1 4975:1 4984:1 5001:1 5036:1 5063:1 5092:1 5093:1 5111:1 5135:1 5214:1 5215:1 5236:1 5420:2 5446:1 5513:1 5660:1 5665:1 5712:1 5716:2 5817:1 5906:1 5939:2 5945:1 5948:1 5950:1 5963:1 5975:1 6061:1 6094:1 6109:3 6208:1 6215:2 6248:1 6288:3 6295:1 6329:1 6400:1 6410:1 6420:1 6426:1 6501:1 6533:1 6591:2 #algo
0.00075769288452330911184939843394659 2:1 55:1 63:1 90:1 193:1 215:1 242:1 247:1 292:1 295:1 448:7 576:1 586:1 638:1 720:2 721:2 898:1 919:1 942:1 1001:1 1072:1 1095:1 1128:1 1152:1 1163:1 1212:1 1215:2 1232:1 1242:1 1252:2 1295:3 1357:1 1358:1 1400:1 1405:1 1420:1 1424:5 1426:2 1430:1 1440:1 1458:1 1501:3 1508:1 1584:2 1585:1 1603:1 1609:3 1612:2 1619:5 1636:1 1638:2 1665:1 1692:5 1702:2 1766:1 1810:1 1822:9 1824:1 1869:4 1975:1 2001:6 2014:2 2036:1 2079:1 2103:1 2145:1 2152:2 2155:1 2167:1 2169:1 2197:1 2215:7 2233:1 2258:2 2292:1 2295:3 2319:1 2320:2 2323:2 2332:1 2342:1 2358:1 2365:6 2381:1 2416:1 2505:2 2539:2 2566:1 2611:1 2612:1 2630:1 2651:1 2663:1 2675:1 2683:1 2754:1 2770:3 2775:1 2824:1 2855:1 2862:11 2885:1 2900:1 2919:9 2950:2 2954:2 2965:1 2975:5 2994:2 3004:1 3051:1 3052:1 3100:2 3121:1 3152:1 3176:1 3215:1 3232:1 3241:1 3295:1 3382:1 3385:1 3420:1 3421:1 3424:1 3437:1 3451:1 3463:1 3505:7 3517:1 3526:1 3539:1 3542:1 3574:1 3612:2 3675:1 3680:1 3691:1 3816:1 3824:1 3838:1 3853:1 3870:1 3884:1 3888:1 3904:1 3939:1 3951:1 3983:1 4001:1 4002:2 4021:2 4022:1 4023:2 4039:1 4040:2 4044:1 4063:2 4066:1 4070:1 4094:1 4133:1 4136:2 4152:1 4164:6 4167:2 4215:1 4232:1 4238:2 4295:3 4305:1 4320:1 4369:1 4381:4 4385:1 4390:2 4406:1 4409:1 4424:1 4433:3 4434:1 4435:1 4443:1 4455:1 4459:2 4463:2 4475:3 4508:1 4514:2 4519:1 4577:2 4612:1 4639:2 4644:1 4660:2 4665:1 4673:1 4680:1 4822:2 4824:1 4851:1 4852:1 4862:1 4895:7 4898:24 4902:2 4906:2 4912:4 4919:3 4927:3 4936:1 4937:1 4949:4 4950:1 4954:1 4963:1 4964:1 4971:1 4975:2 4984:1 5001:4 5002:10 5012:1 5014:1 5038:1 5063:1 5072:1 5112:1 5115:1 5139:3 5152:1 5163:4 5169:1 5178:1 5180:1 5181:1 5190:1 5215:3 5234:3 5236:1 5242:2 5245:1 5250:2 5260:2 5292:1 5296:1 5305:2 5320:1 5334:1 5354:1 5371:1 5384:1 5420:1 5424:4 5426:2 5430:1 5438:1 5463:1 5471:1 5473:1 5474:1 5476:5 5496:1 5501:3 5513:1 5541:4 5542:1 5557:2 5565:3 5566:1 5577:1 5584:1 5591:2 5601:2 5612:3 5618:3 5619:2 5635:1 5639:3 5644:6 5665:1 5674:1 5689:1 5691:1 5756:1 5773:1 5779:1 5788:1 5810:2 5822:4 5862:2 5869:1 5884:1 5898:1 5919:3 5954:1 5975:1 5996:1 6001:4 6002:1 6013:1 6021:1 6052:2 6064:1 6101:1 6133:1 6180:1 6215:1 6263:1 6267:1 6276:1 6282:1 6292:1 6295:1 6305:1 6318:1 6360:1 6378:1 6409:1 6416:1 6459:1 6488:1 6489:1 6501:1 6505:1 6508:1 6612:1 6620:1 #algo
-0.013391223805875875421667053899455 2:7 4:1 36:1 135:1 181:1 215:1 228:1 236:1 242:1 293:2 295:1 315:2 343:3 403:1 406:1 422:2 457:1 460:1 488:1 513:2 541:1 568:1 577:1 639:10 647:1 665:1 700:2 810:1 819:1 863:1 869:1 870:1 880:1 898:3 902:1 919:2 945:1 950:1 952:1 1002:3 1014:4 1149:1 1152:1 1200:2 1215:1 1265:1 1272:1 1281:1 1424:1 1440:1 1459:1 1461:1 1463:2 1513:1 1541:1 1567:1 1586:1 1620:1 1639:6 1644:1 1660:2 1665:1 1673:1 1677:1 1692:1 1822:1 1840:1 1852:1 1869:1 1898:1 1919:1 1927:1 1937:1 1942:1 1948:1 1949:1 1950:1 1954:1 2001:3 2004:1 2014:3 2031:1 2064:1 2170:1 2182:1 2232:1 2235:1 2236:1 2244:1 2292:1 2366:1 2384:1 2388:1 2392:1 2436:1 2440:1 2458:1 2513:2 2531:1 2534:1 2567:1 2606:1 2612:1 2639:3 2665:1 2869:2 2898:2 2919:1 2953:1 2956:1 2964:1 2975:1 3014:1 3021:1 3138:1 3152:1 3215:1 3233:1 3236:1 3242:2 3256:1 3260:1 3305:1 3343:1 3384:1 3441:1 3447:1 3456:1 3480:1 3608:1 3665:1 3690:1 3786:1 3826:1 3842:2 3898:4 3921:1 3948:1 3949:1 4001:1 4002:4 4097:1 4142:1 4215:2 4249:1 4263:1 4282:2 4412:1 4420:1 4441:1 4452:1 4488:1 4513:2 4527:1 4559:1 4573:1 4584:1 4616:1 4639:1 4644:1 4665:1 4710:1 4810:1 4919:2 5002:2 5018:1 5022:1 5033:1 5142:1 5162:1 5167:1 5194:1 5195:1 5236:1 5355:1 5384:1 5541:1 5596:1 5620:1 5639:3 5642:1 5644:4 5665:1 5682:1 5697:1 5805:1 5898:3 5924:1 5937:1 5975:1 6002:3 6076:1 6142:1 6163:2 6182:1 6205:1 6215:4 6221:1 6232:1 6234:1 6295:3 6360:1 6414:1 6454:1 6457:6 6461:3 6501:3 6523:1 6546:1 6566:1 6567:1 6612:1 6619:2 6639:1 6644:1 #algo
-0.0085123796223636229163478361670059 2:2 13:1 14:1 25:1 31:1 94:1 97:1 137:3 142:2 144:1 152:1 156:2 190:1 202:1 208:1 209:1 215:1 229:1 242:6 281:1 296:1 305:4 351:1 384:3 402:2 420:2 440:2 590:1 601:3 612:2 639:3 644:1 648:1 665:1 674:1 734:1 740:1 779:1 783:1 822:5 869:1 881:1 893:1 898:1 925:2 948:1 975:1 1001:4 1002:3 1013:1 1014:3 1021:1 1059:1 1102:2 1103:1 1133:1 1152:1 1158:1 1163:1 1177:3 1182:1 1236:1 1272:1 1285:1 1320:1 1321:1 1330:1 1339:4 1356:1 1373:1 1381:2 1382:1 1384:1 1422:2 1427:1 1434:1 1502:1 1514:2 1519:1 1521:2 1541:2 1590:1 1594:1 1597:1 1616:2 1624:1 1639:2 1647:1 1658:1 1665:1 1678:1 1687:1 1695:1 1698:1 1725:3 1726:1 1747:1 1801:3 1810:1 1852:1 1862:1 1863:1 1869:2 1895:1 1904:1 1908:1 1919:7 1921:1 1931:1 1935:1 1948:2 1950:2 1951:1 1954:1 1957:1 1980:1 2001:1 2002:1 2004:3 2012:1 2026:2 2031:1 2082:1 2133:1 2142:1 2149:1 2159:2 2163:1 2183:1 2194:1 2215:4 2267:1 2272:1 2276:1 2282:1 2295:2 2305:2 2358:1 2369:1 2409:2 2434:1 2449:1 2470:1 2471:1 2472:2 2501:2 2520:1 2567:1 2577:1 2587:1 2599:3 2642:1 2647:1 2665:2 2691:1 2698:3 2703:1 2786:1 2799:1 2807:1 2810:1 2824:1 2852:3 2898:1 2948:2 2950:1 2973:1 3002:2 3004:1 3014:1 3016:1 3113:1 3133:1 3163:1 3175:1 3177:1 3215:3 3239:1 3245:1 3251:1 3263:1 3264:1 3272:3 3284:2 3285:1 3323:3 3355:3 3369:3 3381:2 3383:1 3403:2 3409:1 3410:2 3420:1 3421:1 3440:1 3472:1 3473:1 3501:2 3513:1 3528:1 3538:1 3539:2 3562:2 3593:2 3624:1 3644:2 3650:1 3665:1 3675:2 3697:1 3703:1 3751:1 3775:1 3786:1 3799:1 3801:1 3810:1 3819:1 3851:1 3862:1 3898:12 3912:3 3919:2 3927:1 3936:1 3937:2 3938:1 3945:1 3950:1 4002:7 4013:1 4031:2 4071:1 4073:1 4142:2 4146:1 4174:1 4182:1 4186:3 4215:1 4236:2 4242:1 4246:1 4248:1 4256:1 4262:1 4264:2 4265:1 4266:1 4270:1 4305:1 4312:1 4319:1 4328:1 4335:1 4341:1 4384:1 4418:2 4433:1 4461:2 4472:2 4476:1 4483:1 4488:1 4513:7 4528:3 4541:2 4557:1 4587:1 4591:1 4594:1 4597:1 4601:1 4619:1 4639:15 4644:3 4653:1 4660:1 4665:1 4673:1 4687:2 4745:1 4754:1 4780:1 4788:1 4791:1 4801:1 4810:1 4822:1 4824:1 4862:1 4869:5 4877:1 4895:3 4898:5 4912:1 4932:1 4948:1 4975:2 4979:1 5001:8 5002:2 5014:1 5102:1 5178:1 5182:1 5203:1 5207:1 5208:2 5209:1 5211:1 5264:1 5292:1 5354:1 5384:1 5386:1 5403:1 5422:1 5440:1 5457:1 5472:1 5513:1 5519:1 5541:1 5584:1 5585:1 5601:1 5603:1 5631:1 5639:1 5644:3 5665:1 5697:1 5698:1 5703:1 5715:1 5764:1 5791:1 5793:1 5801:1 5802:2 5822:1 5830:1 5851:1 5858:1 5862:1 5869:2 5898:2 5919:2 5931:1 5933:1 5954:1 5973:1 5975:1 5981:1 5996:1 6001:1 6002:1 6014:1 6016:1 6056:1 6087:2 6095:1 6100:1 6152:1 6163:2 6219:1 6221:1 6270:1 6297:1 6305:1 6318:1 6332:1 6354:3 6358:2 6361:2 6388:1 6404:1 6409:1 6414:1 6417:1 6469:1 6473:1 6492:1 6501:2 6513:1 6514:1 6526:1 6554:1 6557:1 6587:1 6589:1 6601:2 6612:2 6628:1 6633:1 #algo
-0.0037735738603559797199604730622013 1:2 2:6 4:1 100:1 126:1 168:1 191:1 281:1 282:1 293:1 337:1 359:1 384:1 387:1 426:2 440:1 463:2 471:1 519:1 520:1 541:3 567:2 573:1 596:1 612:1 619:2 639:6 644:3 665:1 681:1 692:3 693:1 702:1 751:1 811:1 822:1 898:1 948:1 975:1 1002:2 1004:1 1031:1 1059:1 1105:1 1112:1 1115:1 1142:1 1219:2 1258:1 1308:1 1332:1 1384:2 1619:1 1639:2 1660:1 1665:1 1687:1 1692:1 1721:1 1804:2 1852:1 1877:1 1898:1 1921:1 1954:1 1975:2 2001:1 2004:1 2011:1 2037:1 2054:1 2124:1 2130:1 2152:1 2215:1 2358:2 2402:1 2501:3 2514:2 2549:1 2577:1 2582:1 2612:1 2619:5 2639:1 2692:1 2693:1 2702:1 2708:1 2789:2 2822:2 2862:1 2912:2 2919:1 3001:1 3002:1 3031:1 3059:1 3114:1 3152:1 3211:1 3215:2 3218:1 3290:1 3301:1 3307:1 3337:1 3358:1 3385:1 3424:1 3523:1 3541:1 3621:1 3639:1 3665:1 3673:1 3721:1 3723:1 3819:1 3869:1 3898:1 3912:1 3919:1 4002:3 4004:1 4011:1 4014:1 4169:1 4242:1 4332:1 4384:1 4395:1 4444:1 4619:3 4639:3 4692:2 4702:1 4726:1 4840:1 4893:1 4937:1 5001:1 5002:2 5059:1 5132:1 5152:2 5215:2 5237:1 5242:2 5383:1 5430:1 5476:1 5501:1 5565:1 5601:1 5612:2 5619:2 5639:1 5642:3 5692:1 5702:1 5715:1 5721:1 5726:1 5804:1 5810:1 5852:2 5948:1 5954:1 5984:1 6001:2 6002:2 6004:1 6013:1 6059:1 6076:1 6178:1 6197:1 6242:1 6336:1 6371:4 6442:1 6512:1 6539:2 6541:1 6561:1 6591:1 6639:2 #algo
0.0037295385796318695353912531231799 2:1 12:1 14:1 49:3 50:1 152:1 180:1 202:2 208:1 239:1 427:1 435:1 436:1 440:1 446:1 523:1 530:1 604:1 634:1 639:2 644:1 665:1 673:1 862:1 898:1 1041:1 1076:3 1092:1 1094:1 1152:1 1305:2 1359:1 1381:1 1383:2 1392:1 1420:1 1423:1 1444:1 1446:1 1447:1 1533:1 1539:1 1577:1 1590:1 1665:1 1702:1 1822:2 1852:1 1869:1 1898:9 1906:1 1907:1 1912:1 1928:1 1945:1 1993:1 2002:5 2014:1 2033:1 2057:1 2103:1 2142:3 2197:1 2215:1 2236:1 2261:2 2270:1 2295:1 2307:1 2315:1 2330:1 2334:1 2484:1 2508:1 2541:1 2578:2 2639:3 2644:2 2665:1 2770:3 2842:1 2862:1 2946:1 2948:1 3004:1 3142:1 3215:2 3355:1 3403:1 3453:1 3501:1 3545:1 3591:2 3665:1 4061:1 4076:1 4215:1 4242:1 4412:1 4665:1 4852:1 4898:2 4945:1 5002:2 5072:1 5126:1 5163:1 5208:2 5215:2 5234:1 5236:1 5254:1 5260:2 5295:2 5358:2 5364:1 5384:1 5395:1 5404:1 5425:1 5459:1 5472:1 5501:1 5513:1 5539:1 5541:1 5566:1 5567:1 5616:1 5639:3 5665:1 5674:1 5743:1 5786:1 5810:2 5819:1 5822:1 5882:1 5898:1 5950:1 5994:1 6002:1 6072:1 6152:1 6163:1 6168:1 6169:1 6184:1 6215:5 6292:3 6295:1 6323:2 6358:1 6384:1 6420:1 6440:1 6485:1 6510:2 6511:1 #algo
0.0053395950170165460899052156662492 1:7 2:1 14:2 86:1 162:1 215:4 236:1 242:1 265:1 292:1 295:2 301:1 331:1 358:1 381:2 384:1 438:1 439:1 471:1 513:2 514:2 612:1 639:4 730:1 760:1 802:1 813:1 852:1 867:1 869:1 919:3 948:1 954:1 963:1 994:1 1014:1 1031:1 1046:1 1079:1 1086:2 1092:3 1215:2 1248:1 1275:1 1320:1 1330:1 1416:1 1453:2 1536:1 1649:1 1699:1 1703:1 1704:1 1740:1 1766:1 1828:1 1880:1 1898:3 1919:1 1926:1 1958:2 2002:1 2004:1 2015:2 2036:2 2037:1 2042:1 2101:1 2215:1 2236:2 2242:1 2248:1 2301:1 2303:1 2330:1 2371:1 2400:1 2412:1 2433:1 2665:1 2687:1 2700:1 2703:1 2801:1 2822:2 2833:1 2869:2 2895:3 2898:10 2903:1 2912:1 2919:1 2925:1 2939:1 2940:2 2945:1 2948:1 2950:1 2969:2 2996:1 3002:7 3009:1 3261:2 3274:1 3292:1 3305:1 3358:1 3387:2 3420:1 3463:1 3513:1 3565:2 3665:1 3715:1 3804:1 3869:1 3898:3 3938:1 3945:1 3948:7 3958:1 3975:1 3984:1 4001:1 4036:1 4063:1 4092:1 4093:1 4111:1 4135:1 4214:1 4215:1 4236:1 4420:2 4446:1 4513:1 4660:1 4665:1 4712:1 4716:2 4817:1 4906:1 4939:2 4945:1 4948:1 4950:1 4963:1 4975:1 5061:1 5094:1 5109:3 5208:1 5215:2 5248:1 5288:3 5295:1 5329:1 5400:1 5410:1 5420:1 5426:1 5501:1 5533:1 5591:2 5703:1 5773:1 5886:1 5898:4 5912:2 5919:1 5950:1 6002:2 6175:1 6214:1 6215:4 6288:2 6292:1 6328:1 6329:1 6358:1 6521:1 6639:3 6644:4 #algo
-0.012480432940031694483140611851013 59:1 94:1 211:2 352:1 402:1 533:1 590:1 644:1 895:1 898:1 919:1 936:1 937:1 938:1 948:2 950:1 975:1 1002:2 1021:1 1050:1 1256:1 1401:1 1414:1 1591:2 1639:1 1665:1 1810:1 1862:1 1895:1 1945:1 1950:1 2002:2 2016:1 2116:1 2207:1 2292:1 2303:1 2332:1 2384:2 2389:1 2446:1 2454:1 2463:1 2488:1 2519:1 2639:2 2665:1 2789:1 2854:1 2898:1 2927:1 2948:1 2963:1 3002:2 3371:1 3513:1 3567:1 3612:1 3623:1 3639:2 3898:1 3945:1 4002:2 4272:2 4295:1 4323:2 4513:1 4603:1 4639:2 4644:1 4665:1 4810:1 4842:1 4852:1 5053:1 5054:1 5084:1 5130:1 5215:1 5231:1 5295:1 5323:2 5347:1 5413:1 5455:1 5501:1 5522:1 5532:1 5680:1 5682:1 5801:1 5810:2 5852:1 5898:1 5899:1 5928:1 6021:1 6055:1 6178:1 6242:1 6294:1 6399:1 6434:1 6501:3 6548:1 6579:1 6593:1 6605:1 6660:1 #algo
-0.0059222537086468379774473191901052 1:1 14:2 22:1 83:2 104:1 163:1 184:1 215:8 252:1 258:1 295:3 309:2 323:2 390:1 427:1 432:1 522:4 525:3 549:1 612:1 627:1 682:1 700:1 737:1 763:1 803:1 810:2 866:1 869:1 895:1 898:2 903:1 912:1 919:2 927:2 931:1 945:1 954:1 975:1 984:2 998:1 1002:2 1004:2 1031:2 1060:2 1068:1 1081:4 1116:1 1185:1 1197:1 1213:1 1270:1 1319:1 1380:1 1400:1 1420:1 1426:2 1436:1 1446:1 1449:1 1454:1 1455:1 1457:1 1458:1 1463:1 1567:1 1591:2 1612:1 1658:1 1673:1 1922:1 1976:1 2014:1 2038:1 2169:1 2219:1 2242:1 2258:1 2280:1 2286:1 2305:1 2309:1 2311:1 2312:1 2327:1 2360:1 2384:2 2434:1 2526:1 2533:2 2578:1 2594:1 2599:1 2612:1 2620:1 2644:1 2754:1 2836:1 2838:1 2857:1 2869:6 2895:2 2898:11 2902:1 2903:4 2906:1 2912:1 2927:1 2945:2 2948:1 2962:2 2975:1 2991:1 3001:3 3002:6 3004:1 3008:1 3014:3 3095:1 3158:1 3165:1 3215:1 3219:1 3236:1 3258:1 3273:1 3292:1 3294:1 3304:1 3309:1 3356:1 3436:1 3458:2 3478:1 3513:1 3541:1 3658:1 3686:1 3801:1 3834:1 3877:1 3906:1 3919:2 3927:2 3945:1 3948:2 3954:1 3963:1 3975:1 3983:1 3996:1 4004:1 4031:2 4103:1 4104:1 4146:1 4449:1 4471:1 4541:1 4591:1 4615:1 4639:1 4644:2 4667:3 4834:1 4889:1 4895:1 4898:2 4903:1 4906:2 4922:3 4927:2 4941:1 4984:1 4996:1 5002:2 5146:1 5148:1 5215:1 5254:1 5311:2 5381:1 5426:2 5436:1 5517:1 5539:1 5541:1 5548:1 5591:1 5642:1 5665:1 5731:1 5792:1 5850:1 5852:1 5895:1 5897:1 5898:3 5903:5 5906:5 5912:2 5919:1 5927:2 5937:1 5975:1 5984:2 6002:7 6028:1 6098:1 6115:1 6145:1 6146:1 6171:1 6208:1 6215:1 6236:1 6315:1 6323:1 6367:1 6401:1 6463:1 6471:1 6513:1 6541:1 6570:1 6578:1 6627:1 6629:1 6639:7 6644:3 6652:1 #algo
-0.012078587415268257285183572946607 1:1 2:1 13:1 72:1 94:1 152:1 155:1 163:1 166:1 188:1 208:1 215:4 243:1 247:1 295:4 323:2 337:1 345:1 397:1 438:1 443:1 501:1 518:1 528:1 581:1 639:1 667:4 670:1 673:1 700:1 714:1 726:1 732:1 754:2 810:2 822:1 842:2 852:1 869:2 894:1 897:2 898:1 919:2 950:1 974:1 983:1 1004:1 1011:1 1013:2 1014:1 1021:1 1024:1 1051:1 1093:2 1102:1 1120:1 1128:1 1130:1 1149:1 1163:5 1169:1 1178:1 1184:4 1208:1 1215:11 1258:1 1295:6 1307:1 1323:1 1348:1 1358:1 1381:1 1393:1 1429:1 1449:1 1479:1 1501:5 1523:1 1528:1 1539:1 1548:1 1565:1 1574:1 1582:1 1639:1 1645:1 1667:1 1670:2 1673:1 1687:1 1733:3 1737:1 1739:1 1750:1 1754:1 1782:1 1792:2 1810:4 1824:1 1852:2 1886:1 1895:2 1898:6 1935:1 1939:1 1950:1 1960:1 2002:7 2031:1 2061:1 2142:1 2145:1 2170:1 2215:1 2232:1 2242:2 2294:1 2296:1 2384:1 2387:1 2397:1 2420:1 2427:1 2430:1 2435:1 2440:1 2453:1 2488:1 2513:1 2515:1 2541:2 2542:1 2549:1 2606:1 2612:3 2639:11 2644:5 2665:1 2667:4 2670:1 2673:3 2680:1 2686:1 2691:1 2694:1 2713:1 2732:1 2733:1 2766:1 2771:1 2822:1 2824:1 2825:1 2844:1 2852:1 2865:1 2869:4 2881:1 2898:2 2919:1 2937:2 2940:1 2942:1 3001:4 3002:2 3037:1 3089:1 3094:1 3104:1 3121:1 3152:1 3156:1 3170:2 3184:1 3209:1 3215:1 3232:1 3238:1 3242:3 3267:1 3282:1 3292:1 3301:1 3305:1 3373:1 3384:1 3397:1 3400:1 3402:1 3403:1 3422:1 3433:1 3436:1 3437:1 3440:3 3488:1 3496:1 3513:2 3516:1 3517:1 3541:1 3549:1 3584:1 3585:1 3601:2 3612:1 3639:1 3660:1 3665:1 3667:4 3670:3 3674:3 3687:1 3712:1 3740:1 3741:1 3762:1 3766:1 3767:2 3776:1 3786:1 3822:1 3842:2 3863:1 3869:3 3877:2 3895:2 3898:2 3919:1 3937:1 3948:2 3954:1 3961:1 3975:1 3984:1 3994:2 4001:9 4002:2 4004:1 4009:1 4014:8 4018:1 4037:1 4087:1 4094:4 4152:9 4153:1 4197:1 4198:1 4224:1 4258:1 4281:1 4286:1 4292:2 4332:1 4392:1 4400:1 4426:2 4454:1 4459:1 4484:1 4513:2 4518:1 4636:1 4644:1 4669:1 4670:4 4685:1 4687:1 4700:1 4715:1 4791:1 4792:1 4799:1 4801:2 4810:1 4822:1 4852:1 4862:3 4882:2 4919:3 4948:1 4950:1 4954:2 4975:1 5001:1 5002:1 5004:2 5014:2 5022:1 5094:1 5122:1 5180:1 5184:4 5215:1 5252:2 5258:1 5282:2 5402:1 5403:1 5408:1 5436:1 5451:1 5456:1 5501:1 5564:2 5591:1 5594:1 5603:1 5612:1 5664:1 5665:1 5690:1 5738:1 5819:1 5848:1 5852:1 5884:1 5895:6 5898:5 5919:1 5921:2 5927:1 5938:1 5941:1 5945:1 5962:1 5975:1 5984:1 5987:1 6002:4 6022:1 6031:1 6039:2 6094:2 6136:1 6146:1 6184:5 6228:1 6315:1 6355:1 6372:1 6382:1 6400:1 6414:1 6433:1 6454:1 6533:1 6539:1 6541:1 6543:1 6573:1 6621:1 6639:7 6644:3 #algo
-0.0018635743592924024734924781654399 1:18 6:1 7:3 8:1 12:1 14:3 21:1 51:1 90:1 92:2 123:1 134:1 147:3 148:1 149:1 158:5 170:1 178:1 194:1 196:4 197:3 199:2 215:1 242:1 254:1 295:1 305:1 322:2 323:1 333:1 355:1 371:1 386:1 402:1 403:3 404:1 426:1 443:1 460:1 470:1 472:1 501:1 513:1 541:1 555:1 569:1 577:1 610:1 612:4 629:2 639:1 665:1 673:1 675:5 687:1 700:1 740:1 750:1 762:3 806:2 810:2 822:4 842:2 862:5 865:1 869:2 887:1 895:7 898:5 903:1 906:1 919:17 925:1 926:2 929:21 937:1 948:1 950:2 954:2 975:2 1002:3 1006:1 1016:1 1034:1 1044:1 1087:2 1092:1 1094:2 1152:6 1199:1 1226:1 1258:1 1263:3 1302:1 1315:2 1329:1 1330:1 1332:1 1333:1 1357:1 1471:1 1482:1 1492:1 1505:1 1509:2 1513:1 1538:1 1541:1 1580:4 1581:3 1589:1 1622:1 1633:1 1639:5 1675:4 1710:1 1711:1 1715:2 1728:2 1741:1 1749:1 1801:2 1813:1 1829:1 1842:1 1847:1 1857:1 1864:1 1870:1 1877:2 1919:2 1950:1 1954:1 1975:2 1996:1 2016:1 2021:1 2035:1 2069:1 2124:4 2140:1 2174:1 2175:2 2219:1 2225:1 2261:2 2281:1 2324:1 2328:2 2355:2 2371:1 2373:1 2381:4 2384:2 2385:1 2440:1 2509:1 2510:1 2512:1 2577:1 2585:2 2599:1 2609:1 2618:1 2639:1 2643:1 2650:1 2651:1 2663:1 2688:2 2700:1 2820:4 2822:2 2869:3 2875:1 2893:1 2895:4 2896:1 2898:9 2903:4 2912:1 2919:2 2945:1 2948:1 2973:1 2982:2 3002:8 3011:1 3021:1 3075:1 3089:1 3102:1 3107:1 3115:1 3136:1 3163:1 3165:1 3174:1 3176:1 3182:1 3191:2 3192:1 3215:2 3260:7 3264:3 3265:5 3307:1 3315:2 3336:1 3340:2 3358:1 3373:1 3385:1 3420:1 3426:1 3427:1 3436:1 3438:1 3445:1 3476:4 3477:1 3501:1 3513:2 3543:1 3553:1 3566:1 3570:1 3573:1 3591:1 3639:3 3644:1 3658:1 3665:1 3675:1 3687:1 3730:1 3822:4 3852:1 3860:2 3863:1 3883:1 3895:1 3898:4 3906:1 3919:1 3945:1 3948:1 4002:11 4004:1 4022:5 4120:1 4159:2 4197:1 4206:1 4215:1 4242:1 4263:3 4276:1 4370:1 4381:1 4384:2 4438:3 4449:1 4484:2 4541:2 4639:19 4644:5 4665:1 4673:1 4751:1 4764:3 4861:2 4869:3 4895:1 4897:1 4898:1 4917:1 4984:1 5001:1 5002:1 5014:1 5068:1 5086:1 5134:1 5170:2 5171:1 5193:1 5242:1 5305:3 5355:1 5384:1 5473:1 5564:1 5568:1 5619:2 5644:1 5660:2 5665:1 5692:1 5693:1 5702:5 5703:1 5716:1 5771:1 5786:1 5822:3 5824:1 5852:1 5869:1 5895:1 5919:1 5927:1 5950:1 5999:2 6001:7 6002:1 6014:2 6086:1 6162:1 6215:4 6236:1 6242:1 6265:1 6292:1 6295:2 6301:1 6331:1 6358:1 6381:2 6384:1 6438:1 6439:1 6471:1 6513:2 6514:2 6612:1 6639:4 #algo
-0.0071905773674653091290243089872547 1:1 13:1 14:1 35:3 42:1 45:1 106:1 112:1 146:1 187:1 208:1 215:4 242:1 293:1 296:1 305:1 328:1 442:1 444:1 501:1 509:1 533:1 540:1 548:1 551:1 579:1 584:1 593:1 605:1 619:3 673:1 680:1 682:1 700:1 702:1 714:1 731:1 786:1 801:1 810:1 822:1 852:1 869:1 898:7 906:6 919:1 927:1 937:1 939:2 945:1 947:1 948:1 950:1 986:2 1002:4 1004:1 1014:2 1038:1 1043:1 1094:1 1104:3 1121:1 1123:1 1127:1 1152:1 1184:1 1215:4 1233:1 1234:1 1236:1 1242:2 1264:1 1265:1 1292:1 1320:1 1329:1 1365:1 1384:2 1403:1 1420:1 1424:2 1440:1 1442:1 1443:1 1471:1 1472:1 1478:1 1501:2 1505:1 1532:1 1543:1 1549:1 1568:1 1577:1 1584:1 1586:1 1601:1 1603:1 1612:1 1627:1 1635:1 1638:1 1639:7 1660:2 1661:1 1663:1 1665:1 1680:1 1703:1 1739:1 1810:3 1822:2 1869:1 1877:2 1919:5 1994:1 2001:1 2014:7 2049:1 2052:1 2053:1 2080:1 2082:1 2109:1 2215:2 2253:1 2258:1 2330:1 2332:1 2358:3 2373:1 2400:1 2420:1 2436:1 2440:1 2442:1 2471:1 2492:1 2514:2 2523:1 2541:1 2570:1 2612:1 2619:1 2621:1 2638:1 2665:1 2673:2 2692:1 2730:1 2750:1 2754:1 2767:1 2788:1 2801:1 2822:1 2862:2 2869:2 2877:1 2884:2 2898:3 2906:1 2919:1 2927:1 2945:1 2947:1 2950:1 2996:1 3002:5 3004:1 3016:3 3021:1 3034:1 3052:1 3079:2 3136:1 3152:2 3215:2 3233:1 3281:2 3282:1 3296:1 3315:1 3347:1 3381:1 3402:1 3412:1 3424:1 3430:1 3471:1 3489:1 3501:1 3528:1 3547:1 3628:1 3638:1 3660:1 3665:1 3692:3 3747:1 3750:1 3754:1 3799:1 3810:1 3822:2 3869:1 3895:1 3898:6 3919:1 3921:1 3937:1 3942:1 3945:1 3948:2 3950:2 4002:7 4011:1 4014:2 4019:1 4087:1 4103:2 4145:1 4152:1 4208:1 4236:1 4254:1 4258:1 4284:1 4292:1 4381:2 4385:1 4400:2 4402:1 4424:1 4436:1 4447:1 4448:1 4471:1 4534:2 4541:2 4570:1 4591:1 4603:1 4614:1 4620:1 4627:1 4638:1 4639:7 4640:1 4644:1 4665:1 4674:1 4690:1 4731:2 4786:2 4790:1 4810:1 4822:1 4824:2 4852:1 4862:2 4870:1 4877:1 4895:3 4898:5 4902:1 4919:1 4921:1 4945:2 4950:1 4958:1 4984:1 5002:8 5004:1 5014:1 5031:2 5055:1 5140:1 5180:1 5215:3 5232:1 5247:1 5264:1 5265:1 5315:1 5383:1 5384:2 5391:1 5426:1 5463:1 5513:2 5514:1 5541:1 5549:1 5557:1 5573:1 5581:1 5612:1 5619:1 5639:10 5644:1 5647:1 5715:1 5752:1 5834:1 5884:1 5895:3 5898:3 5945:1 5948:1 6002:2 6003:1 6014:2 6051:1 6094:2 6104:1 6133:1 6135:1 6232:1 6281:1 6381:1 6385:1 6400:1 6401:1 6406:1 6443:1 6458:1 6501:1 6513:3 6541:1 6574:1 6639:5 6644:3 #algo
-0.0091670216564007072496123029736736 1:5 2:1 14:3 31:1 82:1 94:1 123:1 152:2 154:1 155:1 156:1 202:1 207:1 236:1 258:1 302:1 336:1 347:1 365:1 381:1 395:1 400:1 415:1 422:1 424:2 436:3 440:1 443:3 495:1 523:2 560:1 567:1 591:2 614:1 621:1 639:4 644:1 665:1 680:1 741:1 742:1 750:1 754:1 762:2 790:1 814:1 822:1 842:2 851:1 862:5 877:1 884:1 895:1 898:1 903:1 919:8 927:1 937:1 948:1 950:1 954:1 958:1 975:2 984:1 1001:1 1002:1 1004:2 1016:1 1023:1 1025:1 1036:1 1104:1 1106:1 1124:1 1139:1 1152:1 1170:1 1174:1 1215:3 1220:1 1224:1 1260:1 1300:1 1306:1 1318:2 1323:1 1358:1 1360:1 1369:1 1410:1 1416:1 1424:2 1440:1 1503:1 1519:1 1549:1 1574:1 1580:1 1585:1 1612:1 1619:2 1642:1 1665:1 1777:1 1804:1 1824:1 1869:3 1872:1 1878:1 1885:2 1895:5 1898:6 1903:1 1912:1 1917:6 1919:2 1921:1 1938:1 1955:1 1996:1 2001:1 2002:1 2014:2 2021:1 2094:1 2098:1 2121:1 2139:1 2146:1 2152:1 2156:1 2164:2 2180:1 2196:1 2236:2 2252:1 2292:1 2307:1 2387:2 2436:1 2539:1 2541:2 2563:1 2574:2 2584:1 2639:2 2665:1 2673:1 2756:1 2777:1 2785:3 2787:2 2842:2 2870:1 2885:1 2895:7 2898:15 2919:1 2937:1 2938:1 2949:1 2962:1 2970:1 3002:8 3007:1 3014:1 3022:1 3038:1 3061:1 3068:2 3094:1 3136:1 3163:1 3184:1 3202:2 3207:1 3215:1 3229:1 3234:3 3245:1 3260:2 3305:1 3316:1 3358:1 3424:4 3426:3 3463:2 3488:4 3495:1 3497:1 3533:1 3541:1 3569:1 3576:1 3577:1 3586:1 3593:1 3614:1 3619:4 3663:1 3665:1 3702:1 3794:1 3841:1 3862:1 3898:2 3962:1 4001:1 4004:1 4013:1 4014:2 4024:1 4043:1 4071:1 4124:1 4175:1 4207:1 4215:1 4254:2 4295:1 4323:1 4334:1 4415:1 4424:1 4443:1 4447:1 4499:1 4501:1 4593:1 4612:1 4619:1 4665:1 4692:1 4809:2 4822:1 4828:1 4843:4 4895:4 4906:1 4919:7 4923:1 4927:1 4948:2 4950:1 4954:1 4958:1 5001:1 5004:1 5013:1 5068:1 5098:1 5120:1 5139:1 5163:1 5202:2 5236:1 5252:3 5296:1 5352:1 5400:1 5426:1 5452:1 5454:1 5463:1 5471:1 5497:1 5536:1 5540:1 5591:2 5620:1 5624:1 5639:1 5665:1 5673:1 5681:2 5702:1 5785:2 5797:1 5805:1 5862:1 5869:1 5885:1 5900:1 5902:1 5919:1 5974:1 6001:1 6029:1 6054:1 6152:1 6181:1 6207:1 6208:1 6238:1 6292:1 6355:1 6424:1 6541:1 6633:1 6634:1 6644:1 #algo
0.0081802902375342143037606490452163 2:5 9:1 62:1 68:2 152:2 180:1 215:1 216:1 237:1 305:2 340:1 358:1 384:1 408:1 420:1 438:2 482:1 488:1 530:1 545:1 589:1 612:1 639:1 644:2 647:1 660:1 665:1 702:1 737:1 907:1 919:1 999:1 1002:1 1037:1 1216:1 1233:1 1242:1 1292:1 1294:1 1365:1 1436:1 1440:2 1523:1 1549:1 1612:2 1629:1 1665:1 1754:1 1765:1 1775:1 1829:2 1869:2 1948:2 1975:3 1987:1 2001:1 2140:1 2152:1 2213:1 2215:4 2254:1 2258:1 2292:1 2297:1 2307:1 2332:1 2358:1 2515:1 2532:1 2566:1 2594:1 2756:1 2810:1 2843:1 2849:1 2852:1 2895:1 2919:1 2950:1 2995:1 3079:1 3120:1 3178:2 3188:1 3208:2 3215:11 3294:1 3295:5 3296:1 3318:1 3332:1 3358:3 3370:1 3381:1 3420:1 3438:1 3512:1 3566:1 3571:1 3596:2 3665:1 3673:1 3688:3 3693:1 3732:1 3794:1 3819:2 3824:1 3835:1 3857:1 3896:1 3898:2 3906:1 3927:1 3942:1 3949:1 3957:2 3994:1 4002:2 4031:1 4080:1 4097:1 4113:1 4142:1 4152:1 4219:1 4233:1 4242:2 4296:2 4305:1 4332:1 4355:1 4384:1 4397:1 4420:1 4440:2 4442:1 4513:1 4537:1 4584:1 4596:1 4597:1 4612:2 4616:1 4639:3 4644:1 4653:1 4656:1 4665:1 4667:1 4686:2 4869:3 4873:1 4895:3 4938:1 4945:1 4948:1 4994:1 5002:2 5074:1 5094:1 5104:1 5123:1 5152:1 5163:1 5215:2 5216:3 5237:1 5242:3 5249:1 5358:1 5360:1 5384:1 5415:1 5420:1 5438:1 5463:1 5482:2 5523:1 5549:1 5603:1 5612:4 5639:1 5644:1 5665:1 5667:1 5682:1 5809:1 5812:1 5821:1 5822:3 5824:1 5829:1 5869:6 5948:1 5977:1 6002:1 6008:1 6014:1 6094:1 6178:1 6208:1 6215:6 6237:2 6292:1 6296:1 6332:1 6373:1 6427:1 6436:2 6479:1 6514:1 6597:1 6614:1 #algo
0.0072438689602931354699633104132772 2:9 21:1 31:1 39:1 40:1 133:1 142:2 165:1 215:1 242:1 265:2 386:1 409:1 463:1 472:1 513:1 541:2 545:1 546:1 570:1 578:1 591:1 611:1 639:10 644:2 647:1 665:1 692:1 801:1 898:1 940:3 1013:1 1128:1 1295:1 1463:1 1639:3 1950:2 2094:1 2096:1 2355:1 2585:1 2665:1 2692:1 2824:1 2939:1 2960:1 3013:1 3152:1 3189:1 3215:4 3294:1 3295:1 3296:1 3334:1 3358:2 3384:1 3430:1 3501:2 3513:2 3547:1 3566:1 3584:1 3665:1 3740:1 3822:2 3824:1 3852:2 3939:1 4001:1 4064:1 4152:1 4163:1 4187:1 4215:1 4292:1 4358:1 4400:1 4442:1 4518:1 4565:1 4584:5 4603:1 4647:1 4665:1 4686:1 4869:1 4939:1 4945:1 5016:1 5305:1 5384:1 5420:2 5618:2 5643:1 5664:1 5665:1 5766:1 5919:1 5960:1 6001:1 6014:1 6094:1 6141:1 6152:1 6215:1 6224:2 6292:1 6381:1 6436:1 6459:1 6547:1 6563:1 6614:1 #algo
-0.0062059801355121117782953632513454 32:3 147:1 501:1 606:1 612:1 619:1 620:1 644:1 702:1 801:1 822:1 869:4 1001:3 1009:2 1021:1 1032:2 1033:1 1352:1 1358:1 1363:1 1543:1 1601:1 1862:1 1898:1 1903:1 1975:1 1994:2 2001:2 2014:2 2032:1 2143:1 2159:1 2198:1 2358:1 2450:1 2501:1 2665:1 2770:1 2912:1 2919:1 2950:2 2954:1 3002:1 3014:1 3032:1 3171:1 3215:1 3499:1 3502:1 3528:1 3530:1 3549:1 3608:1 3619:1 3725:1 3766:1 3895:1 3898:5 3912:1 3945:1 3950:1 3954:1 4002:1 4032:1 4033:1 4072:1 4152:1 4308:1 4358:1 4425:1 4427:1 4541:1 4566:1 4644:1 4898:1 4939:1 4950:1 5001:1 5014:1 5215:1 5238:1 5358:2 5360:2 5476:1 5783:1 5898:1 5919:1 5950:1 5975:1 6178:1 6215:1 6323:1 6364:1 6501:1 6519:1 6534:1 #algo
0.017955628284624002705127665535656 2:2 133:1 294:2 361:1 422:1 497:1 577:1 665:1 672:1 822:1 884:1 912:1 919:1 927:1 1001:1 1021:1 1104:1 1295:1 1358:1 1577:1 1639:4 1644:2 1681:1 1746:1 1822:1 1884:1 1895:1 1900:1 1906:2 1927:1 1978:1 2001:1 2031:1 2215:1 2234:1 2295:1 2497:1 2532:1 2619:1 2639:5 2644:1 2647:1 2655:1 2665:1 2810:1 2852:1 3095:1 3163:1 3184:1 3215:1 3292:1 3388:1 3450:1 3532:1 3639:1 3641:1 3644:1 3665:1 3673:1 3726:1 3822:1 3869:1 3884:1 3906:1 3919:1 3975:1 3994:1 4001:1 4242:1 4295:1 4300:1 4360:1 4409:1 4420:1 4444:1 4591:1 4644:2 4667:1 4700:1 4766:1 4862:1 4949:1 4955:1 5004:1 5014:1 5123:1 5136:1 5184:1 5187:1 5215:1 5295:1 5333:1 5436:1 5446:1 5506:1 5514:1 5612:2 5639:2 5644:2 5663:1 5665:1 5842:1 6014:1 6295:1 6344:1 6381:1 6446:1 6486:1 6572:1 6591:1 6656:1 6659:1 #algo
0.0073731375837898082553634182545466 2:3 14:1 100:1 131:1 146:1 176:1 197:1 205:1 209:1 236:1 237:1 244:1 293:1 295:2 296:1 340:1 355:1 385:1 400:1 406:1 408:1 414:7 432:1 471:3 492:1 513:1 519:1 564:1 593:1 601:1 621:1 623:1 629:1 634:1 639:1 665:1 740:1 810:1 822:1 825:1 858:1 869:1 891:1 898:6 899:2 919:1 939:1 983:1 1002:2 1014:1 1134:1 1178:1 1185:1 1215:1 1233:2 1242:1 1292:1 1305:1 1307:1 1354:1 1384:1 1454:3 1501:2 1549:1 1589:1 1591:1 1593:1 1594:1 1612:2 1691:1 1692:2 1714:1 1722:1 1771:1 1786:1 1852:1 1879:1 1895:1 1898:11 1927:1 1939:1 1945:1 1950:1 1954:1 1975:1 2001:1 2002:5 2013:1 2014:1 2033:1 2061:1 2102:1 2169:1 2182:1 2208:1 2215:10 2231:3 2236:1 2292:1 2360:1 2372:1 2383:1 2384:1 2393:1 2414:3 2416:1 2450:1 2463:1 2478:1 2497:1 2501:2 2528:1 2536:2 2541:1 2581:1 2612:2 2616:1 2628:2 2629:1 2665:1 2673:2 2725:1 2740:1 2810:1 2824:2 2840:1 2852:2 2862:1 2919:1 2924:1 2948:1 2951:1 2973:2 2983:1 2996:1 3001:1 3004:2 3031:1 3060:1 3082:1 3094:1 3130:1 3152:1 3154:1 3178:1 3182:1 3198:1 3215:2 3281:1 3305:1 3326:1 3332:1 3356:1 3410:1 3414:1 3425:1 3427:1 3440:2 3451:1 3454:1 3518:1 3566:1 3570:1 3586:1 3616:1 3657:1 3663:1 3664:1 3680:1 3687:5 3782:1 3800:1 3822:1 3824:1 3872:1 3891:1 3892:1 3898:1 3919:1 3925:1 3927:1 3928:1 3937:2 3942:1 3945:1 3948:1 3970:3 3974:1 3984:2 3996:1 4001:2 4004:1 4016:1 4062:1 4076:1 4080:1 4092:1 4094:1 4103:2 4134:1 4147:1 4170:1 4224:1 4231:1 4242:2 4274:1 4294:1 4305:1 4312:1 4329:1 4330:1 4384:2 4400:1 4407:1 4419:1 4420:3 4427:4 4430:1 4436:1 4438:1 4534:1 4549:1 4591:1 4601:2 4612:2 4619:5 4665:1 4673:1 4678:1 4692:8 4702:2 4703:1 4822:3 4824:1 4828:1 4869:2 4873:1 4877:1 4893:1 4895:4 4898:8 4906:1 4919:2 4921:1 4937:1 4945:1 4948:1 4949:1 4956:1 4970:1 5001:6 5002:1 5014:3 5022:1 5094:1 5100:1 5152:1 5178:1 5214:1 5215:1 5265:3 5292:2 5381:1 5420:1 5427:1 5436:1 5458:1 5463:1 5523:1 5581:1 5612:1 5619:4 5680:1 5690:1 5692:2 5702:1 5703:1 5750:1 5805:2 5806:1 5841:1 5849:1 5869:1 5877:1 5884:1 5906:1 5919:2 5927:2 5945:1 5948:7 5970:3 5976:1 6002:1 6004:2 6014:1 6031:2 6094:1 6098:1 6187:1 6202:1 6215:1 6236:1 6254:1 6295:1 6321:2 6341:2 6358:1 6361:5 6375:1 6377:1 6417:1 6430:1 6463:2 6489:1 6492:1 6522:1 6564:1 6566:1 6639:2 #algo
-0.010397723854811210739135240999076 2:1 106:1 182:1 242:1 252:1 256:1 292:1 315:1 381:1 436:1 665:1 667:1 673:1 869:1 895:1 984:1 1002:2 1021:1 1215:1 1242:2 1292:1 1381:1 1501:1 1514:1 1518:1 1639:1 1642:1 1665:1 1692:1 1714:1 1786:1 1799:1 1862:1 1958:1 2002:1 2014:1 2134:1 2163:5 2184:2 2215:8 2234:1 2295:6 2356:2 2373:1 2381:1 2382:1 2384:1 2471:1 2519:1 2528:1 2541:1 2665:1 2731:1 2806:1 2810:1 2841:1 2852:1 2862:1 2912:1 2919:1 2996:1 3067:1 3152:1 3176:1 3215:3 3241:1 3248:1 3295:1 3347:1 3381:1 3420:1 3513:1 3519:1 3527:1 3536:1 3542:1 3552:1 3594:1 3606:1 3639:1 3644:1 3665:1 3673:1 3737:1 3810:1 3824:1 3840:2 3898:2 4011:1 4021:1 4032:1 4044:2 4063:2 4152:1 4179:1 4180:1 4215:3 4216:1 4242:5 4292:1 4402:2 4420:1 4501:2 4549:1 4566:1 4587:1 4602:1 4612:1 4638:1 4639:2 4665:1 4673:1 4674:1 4680:1 4766:1 4822:1 4869:1 4949:3 4984:1 5001:7 5002:1 5004:1 5014:1 5063:1 5076:1 5103:1 5152:5 5156:1 5196:2 5215:3 5249:1 5250:1 5258:2 5259:1 5260:1 5278:1 5281:3 5315:1 5358:1 5360:2 5365:1 5400:1 5403:1 5424:4 5436:1 5437:1 5453:1 5471:1 5501:2 5514:1 5541:1 5577:2 5587:1 5601:2 5612:2 5621:1 5623:1 5635:1 5639:2 5642:1 5665:1 5754:1 5770:1 5810:2 5842:1 5869:3 5919:4 5948:1 5950:2 5954:2 5968:1 5975:1 5994:2 5995:1 6001:4 6003:1 6004:1 6013:1 6016:1 6021:1 6031:1 6052:2 6064:1 6067:2 6070:1 6087:4 6133:1 6152:1 6163:1 6181:1 6215:4 6247:2 6266:1 6361:1 6425:1 6427:1 6440:1 6453:1 6459:1 6463:1 6479:1 6508:2 6519:1 6528:1 6532:1 6574:1 6575:1 6580:1 6590:2 6591:1 6604:1 6612:2 6628:1 6629:1 6639:1 #algo
-0.012966641330045070371057569502682 2:5 120:1 215:2 232:1 242:1 317:2 366:1 400:1 422:1 532:1 609:1 665:1 682:2 858:1 936:1 1048:2 1085:1 1137:1 1168:1 1184:1 1242:1 1423:1 1442:1 1444:2 1512:1 1541:1 1591:1 1711:1 1786:1 1825:1 1898:1 1936:1 1967:1 2002:1 2215:1 2237:1 2299:1 2317:1 2456:1 2583:2 2612:1 2665:1 2762:1 2869:1 3029:1 3048:1 3208:1 3238:1 3600:1 3754:1 3822:1 3898:1 3919:2 3948:2 3975:1 4014:1 4016:1 4215:1 4242:1 4402:1 4527:1 4586:1 4639:1 4665:1 4692:1 4695:1 4774:1 4858:1 4895:1 4898:2 4954:1 5002:1 5048:1 5136:1 5365:1 5501:1 5541:1 5577:1 5809:1 5869:2 5895:1 5898:3 5936:1 5969:1 6014:1 6065:1 6074:1 6091:1 6106:1 6163:2 6175:1 6178:1 6189:1 6215:5 6236:1 6247:1 6295:3 6323:2 6358:1 6400:2 6416:1 6417:1 6442:1 6463:1 6465:1 6528:1 6541:1 6580:1 6591:3 6617:1 6618:1 6621:2 #algo
-0.016311956667755516531270743030291 2:8 9:1 215:1 242:1 292:1 301:1 302:4 315:1 328:1 351:1 365:1 384:1 390:1 400:3 422:2 424:1 463:2 465:1 471:2 488:1 533:1 541:5 549:1 576:1 591:1 639:9 644:1 654:2 665:1 690:1 745:1 753:1 761:1 876:1 889:1 1014:1 1230:1 1242:1 1265:1 1292:1 1302:1 1315:1 1328:1 1355:1 1388:1 1396:1 1400:1 1418:1 1463:1 1484:1 1578:1 1615:1 1616:1 1639:1 1665:1 1754:1 1822:1 1898:1 1906:4 1912:1 1919:1 1927:1 1938:1 2002:1 2036:1 2081:1 2139:1 2168:1 2215:1 2231:1 2236:1 2297:1 2402:1 2471:1 2524:1 2546:1 2639:1 2665:1 2766:1 2895:1 2906:1 2927:1 2963:1 3005:1 3021:1 3036:1 3101:1 3142:1 3298:1 3302:1 3305:1 3347:1 3386:1 3513:1 3529:1 3665:1 3694:1 3774:1 3892:1 3895:2 3898:1 3906:1 3919:1 3963:1 3983:1 4002:1 4110:1 4120:1 4171:1 4265:1 4295:1 4305:1 4355:1 4358:1 4374:1 4381:1 4536:1 4558:1 4566:1 4612:1 4869:1 4898:1 4945:1 4975:1 5094:1 5142:1 5187:1 5240:1 5242:1 5264:1 5295:1 5334:1 5403:1 5514:1 5541:1 5560:1 5577:1 5612:1 5639:1 5644:2 5665:1 5720:1 5810:2 5879:1 5884:1 5898:1 5942:1 5958:1 5995:1 6002:1 6014:1 6163:1 6215:2 6217:1 6234:1 6298:1 6305:1 6332:3 6384:1 6416:1 6432:1 6501:2 6529:1 #algo
-0.0059620885059941328143473526779417 2:1 23:1 305:1 379:1 416:1 430:1 463:1 491:1 574:1 607:1 612:1 639:2 665:1 803:1 804:1 809:1 869:4 993:1 1001:3 1152:1 1234:1 1242:1 1273:1 1295:1 1459:1 1463:1 1501:1 1593:1 1612:1 1639:1 1640:1 1692:2 1702:1 1754:1 1769:2 1824:1 1842:1 1869:1 1898:1 1920:1 1948:1 1975:1 2009:1 2010:1 2198:1 2221:1 2235:1 2295:1 2305:1 2449:1 2528:1 2619:1 2657:1 2682:1 2862:1 2869:1 2877:1 2898:1 3013:1 3043:1 3095:1 3137:1 3163:2 3168:1 3215:4 3295:1 3323:1 3354:1 3358:1 3425:1 3480:1 3501:1 3566:1 3577:1 3579:1 3682:1 3718:1 3778:1 3804:1 3810:1 3841:1 3843:1 3852:1 3869:1 3895:2 3898:1 3919:3 4022:1 4069:1 4101:1 4108:1 4120:1 4129:1 4137:1 4139:1 4163:1 4215:3 4221:1 4261:1 4295:1 4323:1 4326:2 4367:1 4376:1 4463:2 4464:1 4501:2 4552:1 4598:1 4631:1 4639:5 4644:1 4673:1 4755:1 4786:1 4852:1 4894:1 4895:1 4919:1 4950:1 4984:1 5002:3 5076:1 5094:1 5107:1 5141:1 5152:1 5170:1 5171:1 5208:1 5241:1 5242:4 5292:1 5327:1 5388:1 5430:1 5518:1 5530:1 5540:1 5601:4 5604:1 5612:1 5619:5 5657:1 5665:1 5702:1 5766:1 5809:1 5818:1 5822:1 5869:2 5888:1 5898:1 5942:1 5993:3 6001:4 6014:3 6109:2 6126:1 6128:1 6215:1 6229:1 6292:1 6307:1 6358:1 6384:1 6522:1 6560:1 6612:1 6639:1 #algo
-0.0077795292349580550533838518845187 2:1 13:1 68:1 159:1 281:1 356:1 402:1 446:1 514:1 515:1 556:1 665:1 674:1 1002:2 1014:1 1186:1 1190:1 1264:1 1334:1 1414:1 1639:2 1665:1 1895:1 2093:2 2242:1 2371:1 2460:1 2730:1 2771:2 2808:1 2921:1 2944:1 3001:1 3013:2 3059:1 3142:1 3173:1 3174:1 3215:1 3307:1 3309:1 3615:1 3665:1 3852:1 3856:1 3898:1 3916:1 4024:2 4215:1 4423:1 4501:1 4566:1 4575:1 4639:1 4644:1 4906:1 5001:1 5041:1 5051:1 5104:2 5126:1 5182:1 5295:2 5296:2 5307:1 5323:1 5384:1 5401:1 5542:1 5619:2 5692:2 5702:1 5703:1 5766:1 5767:1 5822:2 5950:1 5975:1 6001:1 6002:1 6057:1 6094:1 6103:1 6170:1 6206:1 6215:2 6242:2 6270:1 6292:1 6294:1 6295:1 6383:1 6420:1 6570:1 6582:1 6603:2 #algo
0.00041028890253705900406991369244736 1:11 2:2 14:2 36:1 52:1 58:1 68:1 136:1 182:1 199:1 210:1 236:1 243:1 251:1 387:1 389:2 400:3 424:2 426:1 428:1 429:1 431:1 443:1 454:1 459:2 465:1 467:1 468:1 471:1 476:1 480:1 501:1 505:1 508:1 514:1 527:1 546:1 548:1 560:4 561:1 565:1 584:1 605:3 619:2 639:1 665:1 673:1 686:2 693:1 754:5 770:2 804:1 862:3 869:1 879:1 884:1 895:2 898:3 919:14 940:1 942:2 948:3 975:2 1001:1 1002:1 1004:1 1025:1 1036:1 1047:1 1056:1 1060:2 1064:1 1069:1 1072:1 1080:1 1094:2 1101:1 1102:1 1103:1 1134:1 1146:1 1163:5 1180:1 1190:1 1208:2 1215:18 1216:2 1227:1 1234:1 1235:1 1237:1 1242:4 1247:1 1250:1 1259:1 1276:1 1295:4 1311:1 1323:2 1328:1 1330:1 1358:1 1365:3 1369:1 1370:1 1385:2 1400:1 1403:2 1416:1 1427:2 1440:3 1464:1 1478:1 1485:1 1501:3 1504:2 1505:1 1509:5 1518:1 1524:1 1532:1 1549:1 1566:1 1574:1 1577:6 1601:1 1607:1 1619:4 1628:1 1636:1 1638:1 1647:1 1655:1 1660:1 1663:2 1665:1 1684:1 1693:1 1756:1 1796:1 1810:3 1813:1 1822:1 1824:3 1840:1 1852:1 1862:5 1869:1 1886:1 1896:1 1898:2 1903:1 1919:5 1927:2 1939:1 1952:1 1972:1 1979:1 2001:7 2002:5 2003:1 2014:2 2018:1 2022:1 2023:4 2038:1 2051:1 2052:1 2066:1 2091:1 2094:2 2121:1 2147:1 2152:1 2160:1 2164:7 2168:1 2171:1 2176:1 2180:1 2200:2 2216:1 2219:1 2228:1 2238:1 2244:1 2248:1 2270:1 2318:1 2332:1 2337:1 2393:2 2406:1 2415:1 2424:1 2433:1 2449:2 2457:1 2458:1 2467:4 2469:1 2472:1 2473:1 2505:6 2508:1 2509:1 2515:1 2523:1 2528:1 2538:1 2541:1 2542:1 2546:1 2559:1 2576:3 2584:1 2603:1 2606:1 2614:1 2665:1 2673:2 2675:1 2678:2 2680:5 2689:1 2703:2 2725:1 2761:1 2785:1 2786:1 2793:1 2797:1 2798:1 2815:1 2853:3 2862:2 2864:1 2870:1 2880:1 2883:1 2893:1 2895:6 2898:25 2904:1 2919:3 2921:1 2927:1 2931:1 2938:1 2942:2 2944:1 2945:2 2948:2 2949:1 2950:2 2952:2 2963:1 2966:1 2975:5 2983:1 2985:2 2986:2 2988:1 3002:4 3004:1 3012:1 3033:1 3036:1 3048:1 3063:7 3096:1 3152:2 3156:1 3165:2 3171:1 3197:1 3215:1 3234:1 3242:6 3247:1 3260:5 3263:1 3264:1 3265:1 3310:3 3325:1 3336:1 3337:1 3344:2 3365:1 3369:1 3381:1 3385:1 3397:1 3424:3 3426:1 3450:1 3458:1 3459:1 3463:1 3471:1 3509:1 3513:4 3519:1 3543:1 3549:1 3558:1 3560:2 3565:4 3572:1 3577:2 3584:1 3591:1 3595:5 3601:2 3604:1 3606:1 3610:1 3612:2 3619:2 3626:1 3640:1 3642:2 3644:8 3660:2 3665:1 3667:7 3702:4 3715:1 3748:2 3763:1 3764:2 3766:2 3767:1 3788:1 3789:1 3797:1 3820:1 3822:2 3848:2 3849:1 3850:1 3862:1 3869:11 3872:1 3895:2 3898:7 3903:3 3913:1 3927:2 3937:1 3948:1 3975:3 3983:1 3985:1 4001:7 4002:4 4014:2 4021:2 4022:1 4052:3 4064:2 4073:2 4094:1 4095:1 4108:1 4123:1 4128:1 4133:1 4134:1 4135:2 4152:1 4174:1 4216:1 4217:2 4253:1 4271:1 4278:1 4296:1 4337:1 4365:1 4381:2 4400:5 4416:1 4422:1 4436:1 4438:1 4453:1 4459:2 4478:1 4488:1 4508:2 4513:1 4527:2 4537:1 4555:3 4560:3 4591:1 4630:2 4665:1 4675:1 4700:1 4715:1 4754:1 4768:1 4770:2 4779:1 4785:1 4804:1 4814:1 4855:4 4862:4 4869:1 4884:1 4895:5 4898:5 4903:1 4906:2 4919:18 4938:1 4939:2 4945:2 4948:2 4950:1 4975:1 4980:1 5002:1 5004:2 5016:2 5031:1 5063:2 5087:1 5097:1 5106:1 5153:1 5154:1 5163:1 5207:1 5218:1 5219:1 5254:1 5259:1 5264:1 5278:1 5311:3 5314:1 5315:1 5369:1 5371:2 5375:1 5378:1 5454:1 5463:2 5465:2 5467:1 5474:3 5488:1 5495:1 5506:1 5530:1 5567:1 5570:1 5578:1 5579:1 5581:1 5591:1 5639:2 5647:1 5665:1 5692:1 5696:1 5762:9 5763:6 5764:4 5808:1 5850:1 5855:1 5866:7 5881:1 5898:1 5932:2 5983:1 5996:1 6002:1 6019:1 6023:2 6033:1 6094:1 6126:1 6153:1 6158:3 6160:1 6184:4 6198:1 6265:1 6269:1 6280:1 6376:1 6381:1 6394:1 6406:4 6408:1 6413:1 6442:1 6467:1 6468:1 6493:1 6541:1 6543:2 6594:1 6602:1 6611:1 6635:1 #algo
0.0027829121766385651187691863128748 1:5 14:4 21:2 41:1 89:2 104:1 123:1 182:1 203:1 217:1 224:1 238:1 242:2 244:1 253:1 258:1 289:1 292:1 305:1 315:1 327:1 332:1 360:1 384:2 402:1 420:1 440:1 451:1 487:1 511:1 518:9 543:1 547:1 549:3 612:3 631:1 653:1 665:2 673:1 682:1 692:2 720:1 740:1 766:3 806:1 810:1 814:1 822:3 852:1 856:2 857:1 868:1 869:1 873:1 894:1 898:2 919:3 927:1 950:1 954:1 1001:2 1002:2 1007:1 1014:4 1031:1 1080:2 1085:1 1094:1 1109:1 1134:1 1152:1 1163:2 1177:1 1178:1 1188:1 1215:4 1222:2 1228:1 1247:1 1249:2 1273:1 1274:1 1276:3 1281:1 1282:1 1283:1 1292:5 1295:1 1296:1 1326:1 1335:1 1343:1 1358:1 1373:1 1377:2 1384:2 1402:1 1436:1 1459:2 1465:1 1475:1 1484:1 1492:1 1497:1 1514:2 1540:1 1542:1 1546:1 1554:1 1555:3 1601:1 1603:1 1618:1 1620:3 1621:1 1639:4 1644:1 1665:2 1687:1 1702:1 1798:1 1810:1 1822:3 1824:2 1828:1 1840:1 1843:1 1862:2 1884:2 1895:1 1898:10 1903:3 1906:1 1913:2 1919:3 1927:1 1945:1 1948:1 1949:1 1950:1 1951:1 1961:1 1975:3 2001:1 2002:8 2004:2 2011:2 2014:3 2016:1 2021:1 2038:1 2094:3 2146:1 2147:1 2153:1 2171:1 2184:3 2207:1 2208:1 2219:1 2227:1 2242:1 2253:1 2281:1 2292:1 2296:1 2347:3 2354:1 2355:1 2383:1 2407:1 2422:1 2425:1 2436:1 2438:2 2453:5 2455:1 2463:4 2471:1 2504:1 2523:1 2533:1 2546:1 2547:1 2570:1 2574:1 2591:1 2594:1 2599:2 2631:1 2639:4 2641:1 2643:1 2665:1 2667:1 2673:1 2682:1 2694:2 2727:1 2746:1 2774:2 2778:1 2786:1 2788:1 2833:1 2842:2 2884:1 2895:1 2898:13 2899:1 2903:1 2906:3 2911:1 2919:1 2927:1 2942:1 2945:2 2975:1 3002:6 3014:1 3024:1 3068:1 3103:1 3104:1 3105:1 3144:2 3145:1 3171:1 3172:1 3173:1 3264:1 3286:1 3296:1 3309:1 3311:1 3315:1 3376:3 3377:5 3378:2 3380:1 3381:1 3384:2 3385:1 3400:1 3410:1 3416:1 3420:1 3457:1 3463:1 3471:1 3472:2 3541:1 3549:1 3555:1 3561:2 3598:1 3603:1 3612:2 3619:3 3620:1 3639:3 3653:2 3665:1 3673:1 3692:6 3702:1 3703:1 3726:1 3745:2 3786:2 3790:1 3793:1 3822:2 3893:2 3895:5 3896:1 3898:16 3906:2 3912:1 3919:1 3925:2 3927:2 3938:2 3939:1 3945:3 3960:1 3962:2 3963:1 3984:1 4002:11 4014:1 4021:1 4023:1 4040:1 4094:2 4095:1 4151:1 4184:2 4236:2 4258:2 4262:1 4281:2 4292:1 4355:2 4358:1 4381:1 4384:1 4385:1 4400:1 4422:1 4428:1 4445:1 4454:1 4457:2 4488:1 4523:1 4541:3 4546:1 4591:1 4600:1 4607:1 4612:1 4619:2 4639:8 4644:1 4647:1 4665:1 4692:2 4730:1 4754:2 4786:1 4793:1 4822:2 4824:2 4895:1 4898:1 4912:1 4919:1 4948:2 4958:1 4975:4 4981:1 4984:1 5002:2 5004:1 5014:1 5103:1 5152:1 5163:1 5178:1 5236:1 5258:1 5292:1 5324:1 5358:1 5386:1 5422:1 5423:1 5426:1 5453:2 5519:1 5536:1 5546:1 5639:1 5644:1 5665:1 5810:1 5845:1 5852:1 5948:1 5996:1 6007:1 6133:1 6215:1 6254:1 6355:1 6358:1 6529:1 6577:1 6619:1 6660:1 #algo
-0.0089734501273724381203988897937052 69:1 328:1 384:1 488:1 497:1 552:1 591:1 639:3 644:1 680:1 793:1 1119:1 1200:1 1232:1 1317:1 1639:1 1644:1 1665:1 2010:1 2094:1 2268:1 2420:1 2501:1 2518:1 2519:1 2581:1 2644:1 2919:1 3109:1 3180:1 3200:1 3215:3 3286:1 3295:1 3323:1 3328:1 3332:1 3358:1 3400:1 3462:1 3501:2 3519:1 3520:1 3539:1 3602:1 3632:1 3639:1 3697:1 3824:2 3852:1 3869:1 3919:1 4208:1 4215:1 4294:1 4315:1 4358:1 4466:1 4597:1 4650:1 5278:1 5291:1 5295:1 5377:1 5524:1 5527:1 5612:1 5653:2 5709:2 5747:1 5810:1 5812:1 5818:1 5877:1 5930:1 5966:1 5981:1 6001:1 6014:1 6026:1 6035:2 6070:1 6111:1 6224:1 6254:1 6295:1 6309:1 6314:1 6332:1 6381:1 6382:1 6402:1 6501:1 6520:1 6541:1 6552:1 6574:1 #algo
-0.0021411686646094266715800724654173 2:1 4:2 16:2 31:1 63:2 87:1 97:1 106:1 153:1 154:1 163:1 207:1 218:1 219:1 254:1 259:1 264:1 278:1 311:3 314:1 315:1 369:1 371:2 375:1 378:1 454:1 463:2 465:2 467:1 474:3 488:1 495:1 506:1 530:1 567:1 570:1 578:1 579:1 581:1 591:1 639:2 647:1 665:1 692:1 696:1 762:9 763:6 764:4 808:1 850:1 855:1 866:7 881:1 898:1 932:2 983:1 996:1 1002:1 1019:1 1023:2 1033:1 1094:1 1126:1 1153:1 1158:3 1160:1 1184:4 1198:1 1265:1 1269:1 1280:1 1376:1 1381:1 1394:1 1406:4 1408:1 1413:1 1442:1 1467:1 1468:1 1493:1 1541:1 1543:2 1594:1 1602:1 1611:1 1635:1 1665:1 1684:1 1742:1 1786:1 1819:1 1822:1 1831:3 1834:1 1835:1 1861:2 1862:1 1876:1 1895:13 1898:45 1903:3 1906:1 1919:1 1925:2 1927:2 1939:1 1945:5 1950:1 1951:1 1959:1 1967:1 2002:10 2013:1 2014:1 2021:2 2035:1 2106:1 2119:1 2120:2 2128:1 2159:1 2163:2 2201:1 2215:15 2223:1 2224:1 2236:1 2253:1 2260:1 2264:1 2269:1 2295:1 2298:1 2333:1 2343:1 2388:2 2394:1 2397:1 2428:1 2460:1 2463:3 2471:1 2488:2 2492:1 2495:1 2496:1 2501:2 2508:2 2512:1 2513:16 2541:2 2577:1 2578:1 2580:2 2581:1 2612:1 2627:2 2629:1 2639:3 2644:2 2651:1 2665:1 2786:1 2810:2 2906:1 3002:1 3055:1 3063:1 3090:1 3193:1 3215:1 3242:1 3247:1 3292:1 3295:1 3448:7 3576:1 3586:1 3638:1 3720:2 3721:2 3898:1 3919:1 3942:1 4001:1 4072:1 4095:1 4128:1 4152:1 4163:1 4212:1 4215:2 4232:1 4242:1 4252:2 4295:3 4357:1 4358:1 4400:1 4405:1 4420:1 4424:5 4426:2 4430:1 4440:1 4458:1 4501:3 4508:1 4584:2 4585:1 4603:1 4609:3 4612:2 4619:5 4636:1 4638:2 4665:1 4692:5 4702:2 4766:1 4810:1 4822:9 4824:1 4869:4 4975:1 5001:6 5014:2 5036:1 5079:1 5103:1 5145:1 5152:2 5155:1 5167:1 5169:1 5197:1 5215:7 5233:1 5258:2 5292:1 5295:3 5319:1 5320:2 5323:2 5332:1 5342:1 5358:1 5365:6 5381:1 5416:1 5505:2 5539:2 5566:1 5611:1 5612:1 5630:1 5651:1 5663:1 5675:1 5683:1 5754:1 5770:3 5775:1 5824:1 5855:1 5862:11 5885:1 5900:1 5919:9 5950:2 5954:2 5965:1 5975:5 5994:2 6004:1 6051:1 6052:1 6100:2 6121:1 6152:1 6176:1 6215:1 6232:1 6241:1 6295:1 6382:1 6385:1 6420:1 6421:1 6424:1 6437:1 6451:1 6463:1 6505:7 6517:1 6526:1 6539:1 6542:1 6574:1 6612:2 #algo
-0.010213127187860991315626613129552 1:9 2:2 4:1 9:1 14:8 18:1 37:1 87:1 94:4 152:9 153:1 197:1 198:1 224:1 258:1 281:1 286:1 292:2 332:1 392:1 400:1 426:2 454:1 459:1 484:1 513:2 518:1 636:1 644:1 669:1 670:4 685:1 687:1 700:1 715:1 791:1 792:1 799:1 801:2 810:1 822:1 852:1 862:3 882:2 919:3 948:1 950:1 954:2 975:1 1001:1 1002:1 1004:2 1014:2 1022:1 1094:1 1122:1 1180:1 1184:4 1215:1 1252:2 1258:1 1282:2 1402:1 1403:1 1408:1 1436:1 1451:1 1456:1 1501:1 1564:2 1591:1 1594:1 1603:1 1612:1 1664:1 1665:1 1690:1 1738:1 1819:1 1848:1 1852:1 1884:1 1895:6 1898:5 1919:1 1921:2 1927:1 1938:1 1941:1 1945:1 1962:1 1975:1 1984:1 1987:1 2002:4 2022:1 2031:1 2039:2 2094:2 2136:1 2146:1 2184:5 2228:1 2315:1 2355:1 2372:1 2382:1 2400:1 2414:1 2433:1 2454:1 2533:1 2539:1 2541:1 2543:1 2573:1 2621:1 2639:7 2644:3 2704:1 2739:1 2792:1 2793:1 2824:1 2863:1 2895:4 2898:5 2912:2 2919:3 2938:1 2939:1 2945:1 2950:1 2979:1 2984:2 3002:13 3031:2 3051:1 3081:1 3145:1 3215:2 3236:1 3246:1 3315:1 3332:1 3384:2 3386:1 3412:1 3420:1 3426:1 3457:1 3463:6 3471:2 3488:1 3497:1 3513:1 3533:1 3541:4 3578:1 3591:1 3606:1 3613:1 3621:1 3629:1 3639:26 3644:8 3665:1 3731:1 3799:2 3879:1 3898:4 4002:3 4009:1 4014:1 4038:2 4094:1 4119:1 4142:1 4215:4 4270:1 4276:1 4304:1 4639:1 4644:2 4665:1 4852:1 4898:1 4953:1 5001:1 5004:1 5215:1 5275:1 5279:1 5584:1 5591:1 5665:1 5842:1 5886:4 5887:1 5939:1 5953:1 6081:1 6142:1 6175:2 6215:2 6332:1 6373:1 6435:1 6438:1 6639:1 #algo
-0.0068425578890127930486997342995892 1:4 2:10 5:1 14:1 64:1 94:1 123:1 141:1 236:2 242:1 271:1 272:2 295:2 305:1 313:1 320:1 332:2 381:1 384:1 392:1 422:1 424:1 433:1 438:2 440:2 463:3 467:4 495:1 500:1 503:2 508:1 513:1 541:4 566:1 575:1 639:4 644:1 665:1 669:1 682:1 696:1 749:1 754:1 761:1 810:1 822:1 852:3 879:1 895:4 898:11 905:1 906:1 919:1 927:2 940:1 945:1 958:1 962:1 975:1 995:1 1001:2 1002:5 1014:1 1031:1 1063:1 1131:1 1136:1 1152:2 1215:3 1232:1 1247:1 1295:1 1332:1 1358:1 1381:1 1422:1 1424:1 1433:1 1449:1 1459:1 1463:1 1488:1 1505:1 1549:1 1578:2 1606:1 1614:1 1639:2 1644:2 1665:1 1764:1 1852:1 1884:2 1886:1 1895:2 1898:10 1927:2 1950:3 1983:3 1984:2 1985:1 1994:1 2001:2 2002:1 2007:1 2023:1 2057:1 2094:1 2105:1 2166:1 2175:1 2185:1 2215:1 2236:1 2294:1 2355:2 2358:1 2400:1 2440:1 2471:1 2475:1 2539:1 2541:1 2566:1 2604:1 2605:1 2612:1 2639:1 2680:1 2700:1 2757:1 2822:1 2852:1 2876:3 2895:6 2898:8 2903:1 2906:2 2919:1 2927:2 2938:1 2939:2 2950:1 2954:1 3002:7 3021:1 3050:1 3104:1 3112:1 3152:1 3171:1 3215:1 3244:1 3278:1 3332:1 3350:1 3398:1 3413:1 3422:1 3440:1 3458:1 3465:1 3495:1 3566:2 3606:1 3612:2 3619:1 3629:1 3639:4 3665:1 3682:1 3742:1 3763:1 3810:1 3822:2 3869:1 3895:2 3912:1 3919:1 3928:1 3940:1 3951:1 4002:1 4212:1 4294:1 4295:1 4436:1 4443:1 4449:1 4591:2 4614:1 4619:2 4639:2 4665:1 4822:2 4834:1 4842:1 4862:1 4895:2 4898:3 4991:1 5002:2 5133:1 5294:2 5361:1 5422:1 5497:1 5577:1 5665:1 5672:1 5822:1 5884:1 5912:1 5919:1 5927:1 6001:1 6021:1 6104:1 6295:1 6358:1 6577:1 6639:4 6644:2 #algo
-0.013035722292255511045588889373903 157:1 184:1 686:1 700:1 1002:1 1200:1 1400:1 1644:1 1754:1 2292:1 3157:1 3686:1 4002:1 4014:1 4094:1 4292:2 4591:1 4770:1 5001:1 5215:1 5775:1 6215:1 6307:1 6420:1 6439:1 6445:1 6449:1 6451:1 #algo
